{"learner":{"attributes":{"best_iteration":"33","best_score":"0.642727042645216"},"feature_names":["Gender","Race","Age","Income","Credit_Score","Loan_Amount","Employment_Type","Education_Level","Citizenship_Status","Language_Proficiency","Disability_Status","Criminal_Record","Zip_Code_Group"],"feature_types":["int","int","int","int","int","int","int","int","int","int","int","int","int"],"gradient_booster":{"model":{"gbtree_model_param":{"num_parallel_tree":"1","num_trees":"64"},"iteration_indptr":[0,1,2,3,4,5,6,7,8,9,10,11,12,13,14,15,16,17,18,19,20,21,22,23,24,25,26,27,28,29,30,31,32,33,34,35,36,37,38,39,40,41,42,43,44,45,46,47,48,49,50,51,52,53,54,55,56,57,58,59,60,61,62,63,64],"tree_info":[0,0,0,0,0,0,0,0,0,0,0,0,0,0,0,0,0,0,0,0,0,0,0,0,0,0,0,0,0,0,0,0,0,0,0,0,0,0,0,0,0,0,0,0,0,0,0,0,0,0,0,0,0,0,0,0,0,0,0,0,0,0,0,0],"trees":[{"base_weights":[-1.0708929E-2,-4.240328E-1,3.445979E-1,-9.7499263E-1,-1.622343E-1,-3.7455836E-1,5.5954623E-1,-1.0694212E0,-5.897653E-1,-4.0441462E-1,-1.1259721E-2,-5.089986E-1,-1.01478525E-1,4.4544163E-1,8.8678086E-1,-2.0664439E-2,-1.0926164E0,-2.242821E-1,-8.769739E-1,-7.2392035E-1,-3.1317717E-1,7.3776044E-2,-5.609596E-1,-7.781046E-1,-3.1980217E-1,-2.3719037E-1,3.8964105E-1,4.7505268E-1,-6.646268E-1,1.6092785E-1,9.474079E-1,-1.10230684E-1,-1.0075134E0,3.022711E-1,-7.692786E-1,-9.3799226E-2,-6.2545687E-1,-4.6158412E-1,-1.1477606E0,-2.6019928E-1,-8.0285326E-2,-7.816102E-2,4.127146E-1,-3.395051E-1,-1.0897152E0,-8.787518E-1,1.7301468E-2,-1.7610043E-1,-6.797273E-1,-4.203728E-1,3.0013257E-1,-1.1639996E-2,6.250147E-1,5.345116E-1,-9.936409E-4,-1.1330347E-2,-8.519187E-2,3.603128E-2,-2.5172994E-2,7.719702E-1,1.265305E0,-9.769329E-2,-6.7603044E-2,-7.997983E-4,5.3383753E-2,-8.759818E-2,-1.1639996E-2,-1.321766E-2,-8.340159E-2,-9.006552E-2,4.593984E-3,-5.281995E-2,-1.1689498E-1,-2.3723042E-2,3.2102115E-2,4.817836E-4,-4.86559E-2,5.7738077E-2,-2.4773423E-2,-6.8697155E-2,-1.0596716E-2,-4.2268414E-2,-1.1214791E-1,-5.098441E-2,-8.7515764E-2,-6.3925623E-3,-7.645925E-2,9.017844E-3,-7.334454E-2,-7.5407885E-3,-5.793069E-2,8.384817E-2,-1.321766E-2,7.4576363E-3,7.739952E-2,3.0180072E-2,5.470789E-2,5.7947915E-2,-1.4825158E-2,6.8676E-2,-5.0628893E-3,3.98342E-2,1.1300954E-1],"categories":[],"categories_nodes":[],"categories_segments":[],"categories_sizes":[],"default_left":[0,0,0,0,0,0,0,0,0,0,0,0,0,0,0,0,0,0,0,0,0,0,0,0,0,0,0,0,0,0,0,0,0,0,0,0,0,0,0,0,0,0,0,0,0,0,0,0,0,0,0,0,0,0,0,0,0,0,0,0,0,0,0,0,0,0,0,0,0,0,0,0,0,0,0,0,0,0,0,0,0,0,0,0,0,0,0,0,0,0,0,0,0,0,0,0,0,0,0,0,0,0,0],"id":0,"left_children":[1,3,5,7,9,11,13,15,17,19,21,23,25,27,29,-1,31,33,35,37,39,41,43,45,47,49,51,53,55,57,59,-1,61,63,65,-1,67,69,71,73,-1,75,77,79,81,83,-1,85,87,89,91,-1,93,95,97,-1,-1,-1,-1,99,101,-1,-1,-1,-1,-1,-1,-1,-1,-1,-1,-1,-1,-1,-1,-1,-1,-1,-1,-1,-1,-1,-1,-1,-1,-1,-1,-1,-1,-1,-1,-1,-1,-1,-1,-1,-1,-1,-1,-1,-1,-1,-1],"loss_changes":[1.7224083E2,7.8041626E1,9.7704834E1,5.7145386E0,1.3476847E1,5.2985764E0,1.7750763E1,2.3303223E0,3.6420202E0,3.8999233E0,1.0706295E1,4.710474E0,3.3800087E0,1.2225914E1,5.33226E0,0E0,1.8817139E0,5.2360244E0,7.631674E-1,2.881731E0,3.8308916E0,1.0253075E1,3.2227821E0,4.144575E0,2.9263368E0,3.9912443E0,1.483736E0,1.000663E1,1.9072275E0,1.6302071E0,5.427017E0,0E0,2.6984863E0,1.0993161E0,1.63865E0,0E0,2.3269262E0,7.1748595E0,7.248459E-1,2.6490483E0,0E0,6.1559916E0,1.3972113E1,2.3671145E0,7.670088E-1,1.1774197E0,0E0,3.181335E0,3.194693E0,2.8739347E0,3.8512263E0,0E0,1.3429098E0,7.122322E0,5.515385E0,0E0,0E0,0E0,0E0,5.584099E0,3.735695E0,0E0,0E0,0E0,0E0,0E0,0E0,0E0,0E0,0E0,0E0,0E0,0E0,0E0,0E0,0E0,0E0,0E0,0E0,0E0,0E0,0E0,0E0,0E0,0E0,0E0,0E0,0E0,0E0,0E0,0E0,0E0,0E0,0E0,0E0,0E0,0E0,0E0,0E0,0E0,0E0,0E0,0E0],"parents":[2147483647,0,0,1,1,2,2,3,3,4,4,5,5,6,6,7,7,8,8,9,9,10,10,11,11,12,12,13,13,14,14,16,16,17,17,18,18,19,19,20,20,21,21,22,22,23,23,24,24,25,25,26,26,27,27,28,28,29,29,30,30,32,32,33,33,34,34,36,36,37,37,38,38,39,39,41,41,42,42,43,43,44,44,45,45,47,47,48,48,49,49,50,50,52,52,53,53,54,54,59,59,60,60],"right_children":[2,4,6,8,10,12,14,16,18,20,22,24,26,28,30,-1,32,34,36,38,40,42,44,46,48,50,52,54,56,58,60,-1,62,64,66,-1,68,70,72,74,-1,76,78,80,82,84,-1,86,88,90,92,-1,94,96,98,-1,-1,-1,-1,100,102,-1,-1,-1,-1,-1,-1,-1,-1,-1,-1,-1,-1,-1,-1,-1,-1,-1,-1,-1,-1,-1,-1,-1,-1,-1,-1,-1,-1,-1,-1,-1,-1,-1,-1,-1,-1,-1,-1,-1,-1,-1,-1],"split_conditions":[6.6E2,7.5802E4,6.0131E4,6.27E2,5.6E2,4.8125E4,8.04E2,5.04E2,3E0,9.8187E4,3E0,7.38E2,1E0,4E0,7.0405E4,-2.0664439E-2,5.3E2,6.41E2,4E1,9.0818E4,1.70435E5,1.47387E5,3E0,7.8E1,2E0,3E0,4.3E1,1E0,7.43E2,6.7189E4,8.34E2,-1.10230684E-1,2E0,5.9E1,6.1E1,-9.3799226E-2,6.3E1,5.27E2,5.32E2,1.66079E5,-8.0285326E-2,1E0,6.5E1,2.9E1,4.5E1,3E0,1.7301468E-2,4.5474E4,7.65E2,1E0,3.4E1,-1.1639996E-2,1E0,1E0,6.87E2,-1.1330347E-2,-8.519187E-2,3.603128E-2,-2.5172994E-2,3E0,3.1E1,-9.769329E-2,-6.7603044E-2,-7.997983E-4,5.3383753E-2,-8.759818E-2,-1.1639996E-2,-1.321766E-2,-8.340159E-2,-9.006552E-2,4.593984E-3,-5.281995E-2,-1.1689498E-1,-2.3723042E-2,3.2102115E-2,4.817836E-4,-4.86559E-2,5.7738077E-2,-2.4773423E-2,-6.8697155E-2,-1.0596716E-2,-4.2268414E-2,-1.1214791E-1,-5.098441E-2,-8.7515764E-2,-6.3925623E-3,-7.645925E-2,9.017844E-3,-7.334454E-2,-7.5407885E-3,-5.793069E-2,8.384817E-2,-1.321766E-2,7.4576363E-3,7.739952E-2,3.0180072E-2,5.470789E-2,5.7947915E-2,-1.4825158E-2,6.8676E-2,-5.0628893E-3,3.98342E-2,1.1300954E-1],"split_indices":[4,3,3,4,4,3,4,4,12,3,6,4,8,6,3,0,4,4,2,3,3,3,7,2,6,7,2,10,4,3,4,0,12,2,2,0,2,4,4,3,0,10,2,2,2,12,0,3,4,7,2,0,0,0,4,0,0,0,0,6,2,0,0,0,0,0,0,0,0,0,0,0,0,0,0,0,0,0,0,0,0,0,0,0,0,0,0,0,0,0,0,0,0,0,0,0,0,0,0,0,0,0,0],"split_type":[0,0,0,0,0,0,0,0,0,0,0,0,0,0,0,0,0,0,0,0,0,0,0,0,0,0,0,0,0,0,0,0,0,0,0,0,0,0,0,0,0,0,0,0,0,0,0,0,0,0,0,0,0,0,0,0,0,0,0,0,0,0,0,0,0,0,0,0,0,0,0,0,0,0,0,0,0,0,0,0,0,0,0,0,0,0,0,0,0,0,0,0,0,0,0,0,0,0,0,0,0,0,0],"sum_hessian":[1.1708539E3,5.4114886E2,6.2970496E2,1.7343257E2,3.677163E2,1.4473157E2,4.8497342E2,1.3786295E2,3.5569622E1,1.4056134E2,2.2715497E2,9.6405945E1,4.8325626E1,3.6133832E2,1.236351E2,4.170232E0,1.3369272E2,1.643562E1,1.9134005E1,2.9682238E1,1.108791E2,1.9747273E2,2.9682238E1,3.8513317E1,5.7892628E1,3.826801E1,1.0057617E1,3.5250723E2,8.831079E0,9.812309E0,1.1382279E2,2.722916E1,1.0646356E2,8.585771E0,7.849848E0,7.1139245E0,1.202008E1,1.9624619E1,1.0057617E1,1.0425579E2,6.623309E0,1.3688171E2,6.059101E1,2.2077698E1,7.60454E0,3.5079006E1,3.4343085E0,4.243824E1,1.5454388E1,2.8701006E1,9.567002E0,3.1890006E0,6.868617E0,3.13258E2,3.9249237E1,4.4155393E0,4.4155393E0,6.132694E0,3.6796162E0,7.555479E1,3.826801E1,4.3174164E1,6.32894E1,5.1514626E0,3.4343085E0,4.660847E0,3.1890006E0,6.378001E0,5.642078E0,8.095156E0,1.1529464E1,5.1514626E0,4.9061546E0,9.934964E1,4.9061546E0,1.1897426E2,1.7907465E1,4.243824E1,1.8152773E1,5.3967705E0,1.6680927E1,3.6796162E0,3.924924E0,1.839808E1,1.6680927E1,3.8758625E1,3.6796162E0,3.6796162E0,1.1774772E1,1.4473157E1,1.4227849E1,3.1890006E0,6.378001E0,3.1890006E0,3.6796162E0,1.5429857E2,1.5895941E2,7.3592324E0,3.1890007E1,6.844086E1,7.1139245E0,6.868617E0,3.1399391E1],"tree_param":{"num_deleted":"0","num_feature":"13","num_nodes":"103","size_leaf_vector":"1"}},{"base_weights":[-1.2541283E-2,-4.43431E-1,1.898019E-1,-6.28665E-1,-2.5735566E-1,2.4707365E-1,-2.1349053E-1,-1.4379741E-1,-7.1308374E-1,-6.17566E-4,-4.4389838E-1,3.5751855E-1,3.5142478E-2,9.004859E-2,-2.9833335E-1,-6.523309E-1,2.0073515E-1,-5.5221033E-1,-1.0079765E0,9.6481934E-2,-6.7457086E-1,-6.041378E-1,-1.4146733E-1,1.6266206E-1,4.7066045E-1,9.6799E-2,-5.861882E-1,-4.775749E-1,-4.177524E-2,-8.053269E-2,5.133044E-3,6.229977E-1,-1.8199566E-1,-6.2623966E-1,2.7776104E-1,-1.02467805E-1,-8.227902E-1,-1.4514978E-1,3.5406205E-1,-7.646572E-2,-2.8161751E-2,-8.2993287E-1,-3.9867297E-1,4.2636684E-1,-4.9147528E-1,-4.3593578E-2,4.853656E-1,5.304617E-1,1.2883392E-1,5.368307E-1,-1.3384639E-2,-1.3035884E-1,-1.0404704E0,3.1205718E-3,-7.2409326E-1,-4.7645575E-1,2.4385841E-1,9.082462E-2,-6.0813194E-3,-6.2145624E-2,4.4792805E-2,-7.03147E-2,-3.360735E-2,6.677792E-2,-4.84422E-2,-9.440341E-2,-5.1400192E-2,-3.0692449E-2,3.1253133E-2,4.157228E-2,-1.5240091E-2,-8.584409E-2,-4.4021793E-2,-6.1006278E-2,-1.3357376E-2,6.2189616E-2,-9.053105E-4,1.1006615E-2,-4.8609145E-2,1.8100003E-2,-2.2210514E-2,4.9063936E-2,-2.6930615E-2,4.547047E-2,7.992145E-3,-3.0163852E-2,2.9823124E-2,1.330202E-2,6.283483E-2,-1.7778398E-2,1.3503443E-2,-6.982912E-2,4.8392776E-2,-9.790819E-2,-4.317852E-2,3.0881112E-2,-5.0509486E-2,-4.1181277E-2,-8.0860525E-2,-4.130353E-3,-6.417828E-2,5.4048695E-2,-1.0976744E-2],"categories":[],"categories_nodes":[],"categories_segments":[],"categories_sizes":[],"default_left":[0,0,0,0,0,0,0,0,0,0,0,0,0,0,0,0,0,0,0,0,0,0,0,0,0,0,0,0,0,0,0,0,0,0,0,0,0,0,0,0,0,0,0,0,0,0,0,0,0,0,0,0,0,0,0,0,0,0,0,0,0,0,0,0,0,0,0,0,0,0,0,0,0,0,0,0,0,0,0,0,0,0,0,0,0,0,0,0,0,0,0,0,0,0,0,0,0,0,0,0,0,0,0],"id":1,"left_children":[1,3,5,7,9,11,13,15,17,19,21,23,25,-1,27,29,31,33,35,37,39,41,43,45,47,49,51,53,55,-1,-1,57,59,61,63,-1,65,67,69,-1,-1,71,73,75,77,79,81,83,85,87,89,91,93,95,97,99,101,-1,-1,-1,-1,-1,-1,-1,-1,-1,-1,-1,-1,-1,-1,-1,-1,-1,-1,-1,-1,-1,-1,-1,-1,-1,-1,-1,-1,-1,-1,-1,-1,-1,-1,-1,-1,-1,-1,-1,-1,-1,-1,-1,-1,-1,-1],"loss_changes":[1.0219893E2,1.274791E1,1.8476511E1,7.5519333E0,9.029517E0,1.6347187E1,1.1666017E1,5.2090054E0,6.9874344E0,5.3228607E0,5.206421E0,1.0050961E1,9.272426E0,0E0,4.3291626E0,3.096087E0,3.0292585E0,6.631691E0,1.721283E0,4.4767084E0,5.927434E-1,2.9664192E0,7.9855003E0,1.13546715E1,5.8616943E0,1.0659327E1,4.390686E0,6.588628E0,5.08181E0,0E0,0E0,3.2392082E0,4.9530635E0,4.673462E0,5.080513E0,0E0,1.5290947E0,4.9288516E0,3.228582E0,0E0,0E0,1.6489258E0,3.1726027E0,2.3831687E0,1.8859181E0,6.6812305E0,7.1973543E0,3.9690094E0,5.6343007E0,3.9246979E0,6.75972E0,7.108678E0,3.315897E-1,5.062984E0,1.6845684E0,2.2003002E0,4.172318E0,0E0,0E0,0E0,0E0,0E0,0E0,0E0,0E0,0E0,0E0,0E0,0E0,0E0,0E0,0E0,0E0,0E0,0E0,0E0,0E0,0E0,0E0,0E0,0E0,0E0,0E0,0E0,0E0,0E0,0E0,0E0,0E0,0E0,0E0,0E0,0E0,0E0,0E0,0E0,0E0,0E0,0E0,0E0,0E0,0E0,0E0],"parents":[2147483647,0,0,1,1,2,2,3,3,4,4,5,5,6,6,7,7,8,8,9,9,10,10,11,11,12,12,14,14,15,15,16,16,17,17,18,18,19,19,20,20,21,21,22,22,23,23,24,24,25,25,26,26,27,27,28,28,31,31,32,32,33,33,34,34,36,36,37,37,38,38,41,41,42,42,43,43,44,44,45,45,46,46,47,47,48,48,49,49,50,50,51,51,52,52,53,53,54,54,55,55,56,56],"right_children":[2,4,6,8,10,12,14,16,18,20,22,24,26,-1,28,30,32,34,36,38,40,42,44,46,48,50,52,54,56,-1,-1,58,60,62,64,-1,66,68,70,-1,-1,72,74,76,78,80,82,84,86,88,90,92,94,96,98,100,102,-1,-1,-1,-1,-1,-1,-1,-1,-1,-1,-1,-1,-1,-1,-1,-1,-1,-1,-1,-1,-1,-1,-1,-1,-1,-1,-1,-1,-1,-1,-1,-1,-1,-1,-1,-1,-1,-1,-1,-1,-1,-1,-1,-1,-1,-1],"split_conditions":[7.4014E4,4.8125E4,1E0,1.06807E5,2.27524E5,1E0,6.8991E4,7.3612E4,1E0,3E0,3.7739E5,3E0,1E0,9.004859E-2,1.31789E5,3.9086E4,3.7171E4,7.7E1,3E0,1.49235E5,5.9363E4,5E1,1E0,1.39309E5,1E0,1.34441E5,2.50898E5,9.5974E4,4.1E1,-8.053269E-2,5.133044E-3,4.6E1,5.3E1,5E0,1E0,-1.02467805E-1,2.02737E5,6.4E1,2.09144E5,-7.646572E-2,-2.8161751E-2,5.9363E4,1E0,4.08238E5,3.94502E5,2.55894E5,7.5E1,1E0,1.06884E5,5E0,1E0,1.31256E5,1.43076E5,5.3E1,3.0017E5,2.9E1,1.51062E5,9.082462E-2,-6.0813194E-3,-6.2145624E-2,4.4792805E-2,-7.03147E-2,-3.360735E-2,6.677792E-2,-4.84422E-2,-9.440341E-2,-5.1400192E-2,-3.0692449E-2,3.1253133E-2,4.157228E-2,-1.5240091E-2,-8.584409E-2,-4.4021793E-2,-6.1006278E-2,-1.3357376E-2,6.2189616E-2,-9.053105E-4,1.1006615E-2,-4.8609145E-2,1.8100003E-2,-2.2210514E-2,4.9063936E-2,-2.6930615E-2,4.547047E-2,7.992145E-3,-3.0163852E-2,2.9823124E-2,1.330202E-2,6.283483E-2,-1.7778398E-2,1.3503443E-2,-6.982912E-2,4.8392776E-2,-9.790819E-2,-4.317852E-2,3.0881112E-2,-5.0509486E-2,-4.1181277E-2,-8.0860525E-2,-4.130353E-3,-6.417828E-2,5.4048695E-2,-1.0976744E-2],"split_indices":[3,3,10,5,5,6,5,5,6,6,5,1,11,0,3,3,3,2,1,5,3,2,7,3,9,5,5,3,2,0,0,2,2,1,0,0,5,2,5,0,0,3,7,5,5,5,2,11,3,1,0,5,3,2,5,2,3,0,0,0,0,0,0,0,0,0,0,0,0,0,0,0,0,0,0,0,0,0,0,0,0,0,0,0,0,0,0,0,0,0,0,0,0,0,0,0,0,0,0,0,0,0,0],"split_type":[0,0,0,0,0,0,0,0,0,0,0,0,0,0,0,0,0,0,0,0,0,0,0,0,0,0,0,0,0,0,0,0,0,0,0,0,0,0,0,0,0,0,0,0,0,0,0,0,0,0,0,0,0,0,0,0,0,0,0,0,0,0,0,0,0,0,0,0,0,0,0,0,0,0,0,0,0,0,0,0,0,0,0,0,0,0,0,0,0,0,0,0,0,0,0,0,0,0,0,0,0,0,0],"sum_hessian":[1.1702074E3,3.7354727E2,7.9666016E2,1.8600485E2,1.8754242E2,6.9793365E2,9.872651E1,2.7983307E1,1.5802155E2,7.934436E1,1.0819807E2,4.583724E2,2.3956125E2,5.1515274E0,9.357498E1,1.0940961E1,1.7042347E1,1.0410276E2,5.3918785E1,7.010138E1,9.242982E0,7.007309E1,3.8124977E1,1.6927661E2,2.890958E2,2.187029E2,2.0858345E1,5.4581047E1,3.8993935E1,7.049696E0,3.8912654E0,7.8042436E0,9.238103E0,9.580307E1,8.299686E0,1.9406656E1,3.451213E1,3.6395676E1,3.3705704E1,3.8887758E0,5.3542056E0,3.1936861E1,3.8136227E1,1.4455303E1,2.3669674E1,1.0379869E2,6.547792E1,2.4558055E2,4.3515263E1,4.3021038E1,1.7568187E2,1.1053827E1,9.804518E0,1.8837137E1,3.5743908E1,1.5197755E1,2.379618E1,4.1433854E0,3.6608584E0,5.101168E0,4.1369343E0,4.157599E1,5.4227085E1,5.123815E0,3.1758714E0,9.715294E0,2.4796835E1,2.5381594E1,1.1014082E1,2.5881397E1,7.8243065E0,1.5566977E1,1.6369884E1,1.3944514E1,2.4191711E1,7.5913005E0,6.864003E0,3.660145E0,2.000953E1,4.822684E1,5.5571854E1,5.6879276E1,8.598642E0,2.2540883E2,2.0171713E1,1.397994E1,2.9535324E1,1.794384E1,2.5077198E1,8.174777E1,9.393409E1,5.4067388E0,5.6470885E0,6.119371E0,3.6851466E0,1.1991983E1,6.845153E0,2.2274406E1,1.3469502E1,7.0988855E0,8.098869E0,1.0793825E1,1.3002356E1],"tree_param":{"num_deleted":"0","num_feature":"13","num_nodes":"103","size_leaf_vector":"1"}},{"base_weights":[-4.101764E-3,-3.7105814E-1,3.0829042E-1,-8.233289E-1,-1.520436E-1,-1.13681234E-1,4.7449023E-1,-1.1664667E0,-7.258208E-1,-4.5468998E-1,7.996713E-3,-2.9719204E-1,1.0462252E-1,2.0778036E-1,6.3471216E-1,1.849403E-3,-1.029157E-1,-9.455333E-1,-5.815139E-1,-4.063743E-1,-1.1373265E-1,9.036058E-2,-5.517534E-1,-7.1058166E-1,-1.7439516E-1,4.516159E-1,-1.9758004E-1,5.304452E-1,2.15489E-2,7.3114175E-1,-1.0337419E-1,-6.9394904E-1,-1.1579105E0,2.411289E-2,-6.2066346E-1,-4.6673846E-1,7.8698E-2,-1.2765145E-1,2.3964764E-1,-1.030877E0,-2.1827856E-1,-3.387272E-3,-8.1732714E-1,-5.012546E-1,5.394382E-2,8.332012E-1,1.6644679E-1,-6.008217E-1,2.0745167E-1,6.7631763E-1,-3.232128E-1,-2.2216918E-1,2.8559345E-1,5.3347045E-1,1.0299041E0,1.2056985E-1,-7.5117457E-1,-7.319276E-2,4.0734902E-2,-1.1341117E-1,-4.8829366E-2,-5.258467E-2,4.6225692E-4,-5.8770366E-2,-2.5404837E-2,-4.0324E-2,1.3491279E-2,2.5182094E-2,-2.0649148E-2,-2.8652493E-2,-9.774778E-2,-4.2148948E-2,1.017513E-2,-9.174498E-3,-7.904367E-2,-1.568368E-2,-7.193609E-2,1.2613656E-2,-8.334342E-2,2.5477776E-2,8.85873E-2,-4.1928817E-2,3.506156E-2,-6.278005E-2,1.8520562E-2,-1.1447892E-3,8.307351E-2,3.6979306E-2,1.1701858E-1,4.093934E-2,-6.408858E-2,2.5086291E-2,-2.7040774E-2,-8.641178E-2,3.4440782E-2,4.9384978E-2,2.8592427E-3,6.4996175E-2,9.886099E-2,8.108746E-2,-9.795193E-3,-9.011892E-2,-2.4330337E-2],"categories":[],"categories_nodes":[],"categories_segments":[],"categories_sizes":[],"default_left":[0,0,0,0,0,0,0,0,0,0,0,0,0,0,0,0,0,0,0,0,0,0,0,0,0,0,0,0,0,0,0,0,0,0,0,0,0,0,0,0,0,0,0,0,0,0,0,0,0,0,0,0,0,0,0,0,0,0,0,0,0,0,0,0,0,0,0,0,0,0,0,0,0,0,0,0,0,0,0,0,0,0,0,0,0,0,0,0,0,0,0,0,0,0,0,0,0,0,0,0,0,0,0],"id":2,"left_children":[1,3,5,7,9,11,13,15,17,19,21,23,25,27,29,-1,-1,31,33,35,-1,37,39,41,43,45,47,49,51,53,55,57,59,-1,61,63,-1,65,67,69,71,-1,73,75,77,79,81,83,85,87,89,91,93,95,97,99,101,-1,-1,-1,-1,-1,-1,-1,-1,-1,-1,-1,-1,-1,-1,-1,-1,-1,-1,-1,-1,-1,-1,-1,-1,-1,-1,-1,-1,-1,-1,-1,-1,-1,-1,-1,-1,-1,-1,-1,-1,-1,-1,-1,-1,-1,-1],"loss_changes":[1.3506883E2,5.354281E1,4.4689507E1,5.060295E0,1.7743774E1,7.2681217E0,1.9388634E1,5.3704376E0,3.892952E0,5.341898E0,1.1140312E1,4.871483E0,8.818316E0,1.0379358E1,2.0351807E1,0E0,0E0,2.0791435E0,3.200306E0,1.0702766E1,0E0,6.8835645E0,4.727542E0,1.5497904E0,5.788452E0,4.1110682E0,7.505161E0,8.093296E0,7.186082E0,1.4338196E1,4.9932475E0,7.694709E0,3.0825157E0,0E0,1.9274788E0,4.469347E0,0E0,9.702139E0,4.7679777E0,1.1620884E0,2.150619E0,0E0,2.1775455E0,3.691553E0,5.4322066E0,1.9691038E0,4.6597385E0,3.687604E0,4.306254E0,8.470837E0,4.362504E0,3.7129111E0,1.1066101E1,6.395546E0,3.4412308E0,5.7610373E0,1.1372309E0,0E0,0E0,0E0,0E0,0E0,0E0,0E0,0E0,0E0,0E0,0E0,0E0,0E0,0E0,0E0,0E0,0E0,0E0,0E0,0E0,0E0,0E0,0E0,0E0,0E0,0E0,0E0,0E0,0E0,0E0,0E0,0E0,0E0,0E0,0E0,0E0,0E0,0E0,0E0,0E0,0E0,0E0,0E0,0E0,0E0,0E0],"parents":[2147483647,0,0,1,1,2,2,3,3,4,4,5,5,6,6,7,7,8,8,9,9,10,10,11,11,12,12,13,13,14,14,17,17,18,18,19,19,21,21,22,22,23,23,24,24,25,25,26,26,27,27,28,28,29,29,30,30,31,31,32,32,34,34,35,35,37,37,38,38,39,39,40,40,42,42,43,43,44,44,45,45,46,46,47,47,48,48,49,49,50,50,51,51,52,52,53,53,54,54,55,55,56,56],"right_children":[2,4,6,8,10,12,14,16,18,20,22,24,26,28,30,-1,-1,32,34,36,-1,38,40,42,44,46,48,50,52,54,56,58,60,-1,62,64,-1,66,68,70,72,-1,74,76,78,80,82,84,86,88,90,92,94,96,98,100,102,-1,-1,-1,-1,-1,-1,-1,-1,-1,-1,-1,-1,-1,-1,-1,-1,-1,-1,-1,-1,-1,-1,-1,-1,-1,-1,-1,-1,-1,-1,-1,-1,-1,-1,-1,-1,-1,-1,-1,-1,-1,-1,-1,-1,-1,-1],"split_conditions":[6.63E2,7.7474E4,6.9332E4,5.35E2,5.58E2,4.8125E4,3E0,5.03E2,5E0,4.37606E5,1E0,3.3E1,2.27524E5,2.09144E5,1E0,1.849403E-3,-1.029157E-1,5.2E1,6.5214E4,4.20948E5,-1.1373265E-1,5E0,3E0,6.83E2,7.39E2,5.8022E4,3.38542E5,1E0,7.59E2,7.73E2,1E0,4.6E1,6.15E2,2.411289E-2,7.4642E4,1E0,7.8698E-2,1.18981E5,7.3E1,6.05E2,6.03E2,-3.387272E-3,3.0208E4,7.1E2,1E0,5.2101E4,1.05673E5,3E0,7.1E1,8.08E2,1.06884E5,1E0,2.3E1,3.94502E5,1E0,7.02E2,2E0,-7.319276E-2,4.0734902E-2,-1.1341117E-1,-4.8829366E-2,-5.258467E-2,4.6225692E-4,-5.8770366E-2,-2.5404837E-2,-4.0324E-2,1.3491279E-2,2.5182094E-2,-2.0649148E-2,-2.8652493E-2,-9.774778E-2,-4.2148948E-2,1.017513E-2,-9.174498E-3,-7.904367E-2,-1.568368E-2,-7.193609E-2,1.2613656E-2,-8.334342E-2,2.5477776E-2,8.85873E-2,-4.1928817E-2,3.506156E-2,-6.278005E-2,1.8520562E-2,-1.1447892E-3,8.307351E-2,3.6979306E-2,1.1701858E-1,4.093934E-2,-6.408858E-2,2.5086291E-2,-2.7040774E-2,-8.641178E-2,3.4440782E-2,4.9384978E-2,2.8592427E-3,6.4996175E-2,9.886099E-2,8.108746E-2,-9.795193E-3,-9.011892E-2,-2.4330337E-2],"split_indices":[4,3,3,4,4,3,1,4,1,5,10,2,5,5,10,0,0,2,5,5,0,1,1,4,4,3,5,9,4,4,9,2,4,0,3,7,0,3,2,4,4,0,3,4,11,3,5,7,2,4,3,1,2,5,0,4,7,0,0,0,0,0,0,0,0,0,0,0,0,0,0,0,0,0,0,0,0,0,0,0,0,0,0,0,0,0,0,0,0,0,0,0,0,0,0,0,0,0,0,0,0,0,0],"split_type":[0,0,0,0,0,0,0,0,0,0,0,0,0,0,0,0,0,0,0,0,0,0,0,0,0,0,0,0,0,0,0,0,0,0,0,0,0,0,0,0,0,0,0,0,0,0,0,0,0,0,0,0,0,0,0,0,0,0,0,0,0,0,0,0,0,0,0,0,0,0,0,0,0,0,0,0,0,0,0,0,0,0,0,0,0,0,0,0,0,0,0,0,0,0,0,0,0,0,0,0,0,0,0],"sum_hessian":[1.1762605E3,5.408062E2,6.354542E2,1.7554399E2,3.6526224E2,1.796498E2,4.5580444E2,3.641928E1,1.3912471E2,1.25704994E2,2.3955724E2,9.740647E1,8.224333E1,1.7191943E2,2.83885E2,3.4106243E0,3.3008656E1,5.295164E1,8.617308E1,1.2107557E2,4.629424E0,2.0956027E2,2.9996965E1,2.1211695E1,7.619478E1,3.805435E1,4.418898E1,6.2237816E1,1.09681625E2,2.5109E2,3.2795017E1,2.619193E1,2.6759708E1,3.374321E0,8.279876E1,1.1667335E2,4.402223E0,8.523373E1,1.2432654E2,1.1451944E1,1.8545021E1,3.1140406E0,1.8097654E1,3.0845406E1,4.534937E1,1.5453806E1,2.2600546E1,2.190119E1,2.228779E1,5.333219E1,8.905623E0,5.7118637E1,5.2562984E1,1.5278674E2,9.830325E1,2.4975044E1,7.819973E0,2.2330423E1,3.8615077E0,1.7072306E1,9.687402E0,7.81764E1,4.6223598E0,4.0328197E1,7.634515E1,3.723307E1,4.800066E1,1.08341835E2,1.5984705E1,3.1679242E0,8.284019E0,9.518083E0,9.026939E0,3.8643758E0,1.4233279E1,1.8301529E1,1.2543877E1,4.2209732E1,3.1396399E0,6.1215725E0,9.332233E0,6.1213408E0,1.6479204E1,1.7984184E1,3.9170039E0,1.836853E1,3.9192598E0,4.316868E1,1.0163514E1,3.2159839E0,5.689639E0,9.85118E0,4.7267456E1,4.4232445E0,4.813974E1,1.3055475E2,2.223199E1,5.021105E1,4.809221E1,4.6641207E0,2.0310925E1,3.4248393E0,4.395134E0],"tree_param":{"num_deleted":"0","num_feature":"13","num_nodes":"103","size_leaf_vector":"1"}},{"base_weights":[-2.4729755E-2,-3.5545468E-1,2.69906E-1,-7.3826456E-1,-1.4032385E-1,-2.3948446E-1,4.3134373E-1,-1.0610417E0,-6.688888E-1,-3.395467E-1,1.3596816E-1,-4.7065136E-1,-7.7819667E-4,1.5048292E-1,6.0799146E-1,-7.995909E-1,-9.713987E-2,-8.670719E-1,-5.506281E-1,-2.796804E-1,-9.3007714E-1,2.6406175E-1,-6.5070355E-1,-6.625752E-1,-2.9612872E-1,-2.769004E-1,3.0118275E-1,8.595093E-2,7.86453E-1,3.76334E-1,9.0992516E-1,-2.8838746E-2,-9.8474497E-1,-6.04279E-1,-1.075326E0,-8.882883E-1,-4.3084598E-1,-4.1624597E-1,-1.2457812E-1,-1.0962294E-1,-2.7679807E-1,1.0220637E-1,2.0968965E-1,-1.1678038E0,-2.4196021E-1,-7.831705E-1,2.0569725E-2,-6.976671E-1,-5.4008387E-2,-5.281361E-1,2.2700024E-1,-5.363901E-2,5.205287E-1,-3.4421018E-1,1.3858475E-1,1.1506439E-1,5.0974804E-1,4.5869407E-1,-7.5179316E-2,1.0072205E0,1.3627753E-1,-1.022653E-1,-4.926445E-2,2.1444773E-3,-5.5467945E-2,-9.1816366E-2,-4.5252826E-2,-2.9747589E-2,-9.8190114E-2,-7.0184544E-2,-2.7850578E-2,-6.3106485E-2,-2.5879307E-2,-3.3903718E-3,-7.447386E-2,1.17524015E-2,-4.319121E-2,3.0753722E-2,-2.939735E-3,-1.1170142E-1,-4.403142E-2,-4.743651E-2,1.5870918E-2,-1.20861465E-2,-7.230824E-2,2.8829549E-2,-7.944205E-2,3.193574E-2,-2.784216E-2,-7.4799865E-2,-2.7710821E-2,-9.7999275E-3,7.562101E-2,-4.4024475E-2,1.9268611E-2,5.986497E-2,-4.134468E-2,-6.48633E-2,-9.4739115E-3,9.098208E-2,8.464211E-3,-2.221712E-2,6.958823E-2,4.201617E-2,-1.1643156E-3,5.5773668E-2,-2.3744293E-2,8.50216E-2,2.5002629E-2,-2.214232E-2,5.4070454E-2],"categories":[],"categories_nodes":[],"categories_segments":[],"categories_sizes":[],"default_left":[0,0,0,0,0,0,0,0,0,0,0,0,0,0,0,0,0,0,0,0,0,0,0,0,0,0,0,0,0,0,0,0,0,0,0,0,0,0,0,0,0,0,0,0,0,0,0,0,0,0,0,0,0,0,0,0,0,0,0,0,0,0,0,0,0,0,0,0,0,0,0,0,0,0,0,0,0,0,0,0,0,0,0,0,0,0,0,0,0,0,0,0,0,0,0,0,0,0,0,0,0,0,0,0,0,0,0,0,0,0,0],"id":3,"left_children":[1,3,5,7,9,11,13,15,17,19,21,23,25,27,29,31,-1,33,35,37,39,41,43,45,47,49,51,53,55,57,59,-1,61,63,65,67,69,71,73,-1,75,-1,77,79,81,83,-1,85,87,89,91,93,95,97,99,-1,101,103,105,107,109,-1,-1,-1,-1,-1,-1,-1,-1,-1,-1,-1,-1,-1,-1,-1,-1,-1,-1,-1,-1,-1,-1,-1,-1,-1,-1,-1,-1,-1,-1,-1,-1,-1,-1,-1,-1,-1,-1,-1,-1,-1,-1,-1,-1,-1,-1,-1,-1,-1,-1],"loss_changes":[1.1509141E2,4.572177E1,5.147404E1,3.7680893E0,1.9723005E1,8.330626E0,2.3460373E1,3.778E-1,3.443512E0,7.0930367E0,1.5335676E1,2.3727798E0,6.359961E0,7.5091777E0,2.0017921E1,8.945265E-1,0E0,2.6766205E0,3.965767E0,3.9785547E0,5.002735E0,6.902789E0,4.232259E0,4.1630707E0,4.043437E0,5.1638627E0,2.8636699E0,3.8679807E0,2.3123322E0,6.2230625E0,9.322281E0,0E0,3.2113647E-1,1.6574001E0,5.5434036E-1,4.3087826E0,2.6969833E0,3.2269363E0,5.960234E0,0E0,1.0588536E0,0E0,5.383476E0,5.248518E-1,2.1565385E0,2.2912178E0,0E0,5.2661705E0,3.7728512E0,1.6643896E0,3.6189725E0,2.3010855E0,5.7291784E0,1.8720984E0,4.8249483E0,0E0,4.041996E0,4.442034E0,4.748534E0,3.9696426E0,3.5739436E0,0E0,0E0,0E0,0E0,0E0,0E0,0E0,0E0,0E0,0E0,0E0,0E0,0E0,0E0,0E0,0E0,0E0,0E0,0E0,0E0,0E0,0E0,0E0,0E0,0E0,0E0,0E0,0E0,0E0,0E0,0E0,0E0,0E0,0E0,0E0,0E0,0E0,0E0,0E0,0E0,0E0,0E0,0E0,0E0,0E0,0E0,0E0,0E0,0E0,0E0],"parents":[2147483647,0,0,1,1,2,2,3,3,4,4,5,5,6,6,7,7,8,8,9,9,10,10,11,11,12,12,13,13,14,14,15,15,17,17,18,18,19,19,20,20,21,21,22,22,23,23,24,24,25,25,26,26,27,27,28,28,29,29,30,30,32,32,33,33,34,34,35,35,36,36,37,37,38,38,40,40,42,42,43,43,44,44,45,45,47,47,48,48,49,49,50,50,51,51,52,52,53,53,54,54,56,56,57,57,58,58,59,59,60,60],"right_children":[2,4,6,8,10,12,14,16,18,20,22,24,26,28,30,32,-1,34,36,38,40,42,44,46,48,50,52,54,56,58,60,-1,62,64,66,68,70,72,74,-1,76,-1,78,80,82,84,-1,86,88,90,92,94,96,98,100,-1,102,104,106,108,110,-1,-1,-1,-1,-1,-1,-1,-1,-1,-1,-1,-1,-1,-1,-1,-1,-1,-1,-1,-1,-1,-1,-1,-1,-1,-1,-1,-1,-1,-1,-1,-1,-1,-1,-1,-1,-1,-1,-1,-1,-1,-1,-1,-1,-1,-1,-1,-1,-1,-1],"split_conditions":[6.66E2,8.3637E4,6.1839E4,5.32E2,5.96E2,1E0,3E0,1E0,3E0,1E0,1E0,4.1961E4,7.65E2,8.34E2,7.69E2,4.2858E4,-9.713987E-2,1E0,3.9729E4,5.51E2,4.8E1,5.98E2,4E0,7.5E1,3E0,4.861E4,3E0,2.4E1,1E0,1E0,1E0,-2.8838746E-2,6.2825E4,5.51E2,1E0,3.0781E4,2.6E1,9.8187E4,7.7E1,-1.0962294E-1,5.32E2,1.0220637E-1,5.5E1,6.32E2,1E0,2.8213E4,2.0569725E-2,1E0,5.0865E4,3.3024E4,6.2E1,3.8E1,5.6685E4,7.16E2,2.6E1,1.1506439E-1,2E0,1E0,6.87E2,1E0,1.27159E5,-1.022653E-1,-4.926445E-2,2.1444773E-3,-5.5467945E-2,-9.1816366E-2,-4.5252826E-2,-2.9747589E-2,-9.8190114E-2,-7.0184544E-2,-2.7850578E-2,-6.3106485E-2,-2.5879307E-2,-3.3903718E-3,-7.447386E-2,1.17524015E-2,-4.319121E-2,3.0753722E-2,-2.939735E-3,-1.1170142E-1,-4.403142E-2,-4.743651E-2,1.5870918E-2,-1.20861465E-2,-7.230824E-2,2.8829549E-2,-7.944205E-2,3.193574E-2,-2.784216E-2,-7.4799865E-2,-2.7710821E-2,-9.7999275E-3,7.562101E-2,-4.4024475E-2,1.9268611E-2,5.986497E-2,-4.134468E-2,-6.48633E-2,-9.4739115E-3,9.098208E-2,8.464211E-3,-2.221712E-2,6.958823E-2,4.201617E-2,-1.1643156E-3,5.5773668E-2,-2.3744293E-2,8.50216E-2,2.5002629E-2,-2.214232E-2,5.4070454E-2],"split_indices":[4,3,3,4,4,0,1,0,1,11,10,3,4,4,4,3,0,0,3,4,2,4,1,2,1,3,1,2,1,8,10,0,3,4,8,3,2,3,2,0,4,0,2,4,0,3,0,1,3,3,2,2,3,4,2,0,1,10,4,11,3,0,0,0,0,0,0,0,0,0,0,0,0,0,0,0,0,0,0,0,0,0,0,0,0,0,0,0,0,0,0,0,0,0,0,0,0,0,0,0,0,0,0,0,0,0,0,0,0,0,0],"split_type":[0,0,0,0,0,0,0,0,0,0,0,0,0,0,0,0,0,0,0,0,0,0,0,0,0,0,0,0,0,0,0,0,0,0,0,0,0,0,0,0,0,0,0,0,0,0,0,0,0,0,0,0,0,0,0,0,0,0,0,0,0,0,0,0,0,0,0,0,0,0,0,0,0,0,0,0,0,0,0,0,0,0,0,0,0,0,0,0,0,0,0,0,0,0,0,0,0,0,0,0,0,0,0,0,0,0,0,0,0,0,0],"sum_hessian":[1.1791257E3,5.554423E2,6.236834E2,1.989656E2,3.564767E2,1.4997578E2,4.7370764E2,3.267024E1,1.6629538E2,2.0699335E2,1.4948337E2,7.569748E1,7.4278305E1,1.8361736E2,2.900903E2,1.4368717E1,1.830152E1,5.97812E1,1.06514175E2,1.8927846E2,1.7714905E1,1.2912268E2,2.0360687E1,3.4719585E1,4.0977894E1,3.884252E1,3.543578E1,1.6773265E2,1.588471E1,1.6541937E2,1.2467093E2,5.13578E0,9.232938E0,2.8154749E1,3.1626451E1,2.6210938E1,8.030324E1,9.9758606E1,8.9519844E1,9.927646E0,7.787258E0,5.4288964E0,1.2369379E2,8.169022E0,1.2191667E1,3.0825974E1,3.8936114E0,1.4706605E1,2.6271288E1,2.5887426E1,1.2955095E1,1.3825927E1,2.1609854E1,1.7682108E1,1.5005054E2,3.4825857E0,1.2402124E1,1.3988687E2,2.5532507E1,1.10475426E2,1.4195502E1,3.7690217E0,5.463916E0,3.5686975E0,2.4586052E1,2.659742E1,5.0290318E0,1.1219635E1,1.49913025E1,1.1050397E1,6.925284E1,1.8388704E1,8.13699E1,8.219362E1,7.3262243E0,3.1522539E0,4.6350045E0,7.204879E1,5.1645E1,5.041864E0,3.1271574E0,6.591265E0,5.6004014E0,5.302924E0,2.552305E1,3.161464E0,1.154514E1,1.0196504E1,1.6074783E1,6.7137704E0,1.9173656E1,9.272594E0,3.682501E0,4.8231235E0,9.002804E0,1.7947481E1,3.6623724E0,4.9213357E0,1.2760772E1,3.6980877E0,1.4635245E2,3.9635653E0,8.43856E0,1.2255392E2,1.733295E1,5.2144985E0,2.0318008E1,1.0180492E2,8.670506E0,8.316465E0,5.8790364E0],"tree_param":{"num_deleted":"0","num_feature":"13","num_nodes":"111","size_leaf_vector":"1"}},{"base_weights":[3.3474527E-3,-3.122937E-1,2.7891725E-1,-7.500386E-1,-9.557439E-2,-7.599206E-2,4.2565727E-1,-8.622341E-1,-5.628517E-1,-3.548046E-1,4.7145166E-2,-3.6545143E-1,9.367974E-2,1.9896838E-1,5.587708E-1,-7.20989E-1,-1.096944E0,-3.6471516E-1,-7.6197517E-1,-2.2222598E-1,-5.705292E-1,-2.004542E-1,1.9455907E-1,-7.6621264E-2,-6.591457E-1,-6.330195E-2,1.5298036E-1,-7.829544E-2,3.5100284E-1,4.4470194E-1,8.949316E-1,-8.5753256E-1,2.8686363E-1,-9.971164E-2,-6.6832E-1,4.8504073E-2,-5.072017E-1,-3.6324748E-1,-1.1659154E0,-4.3001816E-1,7.922471E-3,-7.821528E-1,1.9341932E-1,5.762626E-2,-2.7725694E-1,2.502374E-1,-1.7887504E-1,5.403457E-1,-2.5938588E-1,-8.6856323E-1,-3.2787365E-1,2.1295631E-1,-4.9195823E-1,1.9322069E-1,-3.6332116E-1,7.93972E-2,6.63798E-1,5.1835805E-1,-1.2944908E-1,1.0456977E0,3.8508597E-1,-4.8964076E-2,-8.240857E-2,-4.9897465E-3,6.0891706E-2,-6.58842E-3,-6.96693E-2,-6.0446177E-2,-6.505192E-3,-8.13672E-2,-1.25357555E-2,-4.22117E-2,-1.11556776E-1,-2.2025539E-2,-7.771E-2,-2.9427387E-2,2.894353E-2,-7.868926E-2,-3.401567E-2,4.5227837E-2,-3.0279795E-2,-3.5140075E-2,1.0794129E-2,-4.9050166E-3,2.841482E-2,2.6827011E-2,-4.2518433E-2,7.931067E-2,3.5912257E-3,-4.587822E-2,2.7494146E-3,-2.3845864E-2,-8.8073224E-2,2.9794296E-2,-6.729849E-2,-6.8635833E-3,3.0141274E-2,-7.676553E-2,1.565837E-3,-5.218276E-2,2.5106302E-2,-6.9131464E-2,-1.4870219E-2,4.63488E-4,7.7011906E-2,9.857148E-2,3.2675207E-2,4.771483E-2,1.267771E-3,-3.4230772E-2,2.1027593E-2,2.1369737E-2,9.072995E-2,-5.0442857E-3,1.2793696E-1],"categories":[],"categories_nodes":[],"categories_segments":[],"categories_sizes":[],"default_left":[0,0,0,0,0,0,0,0,0,0,0,0,0,0,0,0,0,0,0,0,0,0,0,0,0,0,0,0,0,0,0,0,0,0,0,0,0,0,0,0,0,0,0,0,0,0,0,0,0,0,0,0,0,0,0,0,0,0,0,0,0,0,0,0,0,0,0,0,0,0,0,0,0,0,0,0,0,0,0,0,0,0,0,0,0,0,0,0,0,0,0,0,0,0,0,0,0,0,0,0,0,0,0,0,0,0,0,0,0,0,0,0,0,0,0],"id":4,"left_children":[1,3,5,7,9,11,13,15,17,19,21,23,25,27,29,31,33,35,37,39,41,43,45,47,49,-1,51,53,55,57,59,61,63,-1,65,-1,67,69,71,73,75,77,79,-1,81,83,85,87,89,91,93,95,97,99,101,103,105,107,109,111,113,-1,-1,-1,-1,-1,-1,-1,-1,-1,-1,-1,-1,-1,-1,-1,-1,-1,-1,-1,-1,-1,-1,-1,-1,-1,-1,-1,-1,-1,-1,-1,-1,-1,-1,-1,-1,-1,-1,-1,-1,-1,-1,-1,-1,-1,-1,-1,-1,-1,-1,-1,-1,-1,-1],"loss_changes":[1.0193492E2,5.1749775E1,3.2616802E1,3.3104858E0,1.3576591E1,9.064468E0,1.3250549E1,2.8931198E0,2.5080414E0,3.5985222E0,8.698779E0,5.730652E0,6.246026E0,6.99858E0,1.0278519E1,1.0194778E1,1.7185822E0,5.4699297E0,5.1010437E0,3.9397984E0,8.063683E0,6.4960613E0,3.1474361E0,4.1422176E0,2.0503426E0,0E0,4.3682623E0,4.6658792E0,9.036787E0,8.942657E0,4.9437714E0,2.0773735E0,1.6003277E0,0E0,1.4063797E0,0E0,3.4379997E0,2.3680232E0,1.683733E0,3.3567133E0,5.4568725E0,2.3521328E0,2.6427987E0,0E0,5.5946884E0,4.281411E0,3.7945707E0,1.8405459E0,2.6083612E0,2.3251133E0,5.577667E0,5.001639E0,2.3342435E0,3.3726118E0,2.4448357E0,3.7910988E0,6.693592E0,7.296509E0,2.999887E0,3.3526535E0,9.599003E0,0E0,0E0,0E0,0E0,0E0,0E0,0E0,0E0,0E0,0E0,0E0,0E0,0E0,0E0,0E0,0E0,0E0,0E0,0E0,0E0,0E0,0E0,0E0,0E0,0E0,0E0,0E0,0E0,0E0,0E0,0E0,0E0,0E0,0E0,0E0,0E0,0E0,0E0,0E0,0E0,0E0,0E0,0E0,0E0,0E0,0E0,0E0,0E0,0E0,0E0,0E0,0E0,0E0,0E0],"parents":[2147483647,0,0,1,1,2,2,3,3,4,4,5,5,6,6,7,7,8,8,9,9,10,10,11,11,12,12,13,13,14,14,15,15,16,16,17,17,18,18,19,19,20,20,21,21,22,22,23,23,24,24,26,26,27,27,28,28,29,29,30,30,31,31,32,32,34,34,36,36,37,37,38,38,39,39,40,40,41,41,42,42,44,44,45,45,46,46,47,47,48,48,49,49,50,50,51,51,52,52,53,53,54,54,55,55,56,56,57,57,58,58,59,59,60,60],"right_children":[2,4,6,8,10,12,14,16,18,20,22,24,26,28,30,32,34,36,38,40,42,44,46,48,50,-1,52,54,56,58,60,62,64,-1,66,-1,68,70,72,74,76,78,80,-1,82,84,86,88,90,92,94,96,98,100,102,104,106,108,110,112,114,-1,-1,-1,-1,-1,-1,-1,-1,-1,-1,-1,-1,-1,-1,-1,-1,-1,-1,-1,-1,-1,-1,-1,-1,-1,-1,-1,-1,-1,-1,-1,-1,-1,-1,-1,-1,-1,-1,-1,-1,-1,-1,-1,-1,-1,-1,-1,-1,-1,-1,-1,-1,-1,-1],"split_conditions":[6.63E2,7.8989E4,7.1845E4,6.02E2,5.58E2,3E0,3E0,3.1078E5,2.68695E5,3.02378E5,3E0,3E0,6.72E2,7.31E2,8.04E2,2.84416E5,4.0694E5,3.1202E4,3E0,2E0,1.5392E5,8.1611E4,1E0,3.7782E4,5.1545E4,-6.330195E-2,1E0,2E0,2E0,1E0,1.54446E5,2E0,5.4392E4,-9.971164E-2,4.17551E5,4.8504073E-2,1.96971E5,3.23556E5,6.21E2,1.58238E5,1.57537E5,3.94502E5,1.67303E5,5.762626E-2,1.49409E5,5.83E2,1.26008E5,2E0,5.1545E4,3.2483E4,2.49331E5,4.1348E4,7.55E2,8.1339E4,1E0,8.43E2,1.01069E5,3.94502E5,1.29024E5,8.1339E4,1.70949E5,-4.8964076E-2,-8.240857E-2,-4.9897465E-3,6.0891706E-2,-6.58842E-3,-6.96693E-2,-6.0446177E-2,-6.505192E-3,-8.13672E-2,-1.25357555E-2,-4.22117E-2,-1.11556776E-1,-2.2025539E-2,-7.771E-2,-2.9427387E-2,2.894353E-2,-7.868926E-2,-3.401567E-2,4.5227837E-2,-3.0279795E-2,-3.5140075E-2,1.0794129E-2,-4.9050166E-3,2.841482E-2,2.6827011E-2,-4.2518433E-2,7.931067E-2,3.5912257E-3,-4.587822E-2,2.7494146E-3,-2.3845864E-2,-8.8073224E-2,2.9794296E-2,-6.729849E-2,-6.8635833E-3,3.0141274E-2,-7.676553E-2,1.565837E-3,-5.218276E-2,2.5106302E-2,-6.9131464E-2,-1.4870219E-2,4.63488E-4,7.7011906E-2,9.857148E-2,3.2675207E-2,4.771483E-2,1.267771E-3,-3.4230772E-2,2.1027593E-2,2.1369737E-2,9.072995E-2,-5.0442857E-3,1.2793696E-1],"split_indices":[4,3,3,4,4,1,1,5,5,5,1,12,4,4,4,5,5,3,12,7,3,5,10,3,3,0,11,1,1,10,3,7,3,0,5,0,5,5,4,3,5,5,3,0,3,4,3,1,3,3,5,3,4,3,12,4,3,5,3,3,3,0,0,0,0,0,0,0,0,0,0,0,0,0,0,0,0,0,0,0,0,0,0,0,0,0,0,0,0,0,0,0,0,0,0,0,0,0,0,0,0,0,0,0,0,0,0,0,0,0,0,0,0,0,0],"split_type":[0,0,0,0,0,0,0,0,0,0,0,0,0,0,0,0,0,0,0,0,0,0,0,0,0,0,0,0,0,0,0,0,0,0,0,0,0,0,0,0,0,0,0,0,0,0,0,0,0,0,0,0,0,0,0,0,0,0,0,0,0,0,0,0,0,0,0,0,0,0,0,0,0,0,0,0,0,0,0,0,0,0,0,0,0,0,0,0,0,0,0,0,0,0,0,0,0,0,0,0,0,0,0,0,0,0,0,0,0,0,0,0,0,0,0],"sum_hessian":[1.169918E3,5.4524927E2,6.2466876E2,1.7973898E2,3.6551028E2,1.828661E2,4.4180264E2,1.10125824E2,6.961315E1,1.2925342E2,2.3625688E2,6.71517E1,1.157144E2,1.6437349E2,2.7742917E2,7.129394E1,3.8831882E1,3.631236E1,3.3300797E1,8.13116E1,4.7941814E1,8.8033775E1,1.4822311E2,3.449192E1,3.2659786E1,6.4918513E0,1.0922255E2,5.838406E1,1.05989426E2,2.0887491E2,6.8554245E1,6.291886E1,8.375078E0,2.7377909E1,1.1453975E1,4.230081E0,3.208228E1,1.7714323E1,1.5586473E1,4.2274837E1,3.9036766E1,3.7523495E1,1.0418319E1,6.132518E0,8.190125E1,1.2927792E2,1.894519E1,7.4353957E0,2.7056524E1,1.9016424E1,1.3643362E1,1.0054243E2,8.680122E0,3.0065598E1,2.831846E1,5.7400967E1,4.8588463E1,1.852118E2,2.36631E1,5.2097523E1,1.6456722E1,2.7849897E1,3.5068962E1,5.323581E0,3.0514967E0,3.3035192E0,8.150455E0,1.977528E1,1.2306997E1,3.3105369E0,1.4403786E1,4.9819155E0,1.0604558E1,3.4052513E1,8.222323E0,1.8913576E1,2.012319E1,2.2863821E1,1.4659675E1,6.3198695E0,4.098449E0,5.8747128E1,2.3154127E1,3.267981E1,9.659811E1,7.72647E0,1.121872E1,3.3682013E0,4.0671945E0,1.2615421E1,1.4441103E1,6.164265E0,1.28521595E1,5.8870287E0,7.7563334E0,3.57744E1,6.476803E1,4.077156E0,4.6029663E0,3.2030172E0,2.6862581E1,6.396056E0,2.1922405E1,5.3914677E1,3.486288E0,1.3877158E1,3.4711304E1,1.6014282E2,2.5068985E1,1.3387731E1,1.027537E1,5.723582E0,4.637394E1,1.2712533E1,3.7441878E0],"tree_param":{"num_deleted":"0","num_feature":"13","num_nodes":"115","size_leaf_vector":"1"}},{"base_weights":[-6.5251603E-3,-2.9185772E-1,2.793862E-1,-6.8479484E-1,-1.15485154E-1,3.4168284E-2,4.1261086E-1,-5.7258856E-1,-9.108409E-1,-3.5359454E-1,6.517214E-2,3.0464056E-1,-1.7217232E-1,2.1961379E-1,5.985231E-1,-9.6959054E-1,-4.7120008E-1,-1.1724781E0,-7.0167154E-1,-5.8026403E-1,-2.0563821E-1,1.4970276E-1,-5.159884E-1,-1.2877978E-1,4.2195088E-1,-5.4314977E-1,6.779889E-2,-3.9766837E-2,3.7931892E-1,2.593405E-1,7.89668E-1,-2.6733233E-2,-1.097383E0,-1.5974982E-1,-6.267906E-1,-8.2727396E-1,-1.0572747E-1,-9.1432244E-1,-2.8291628E-1,-1.0556103E0,-3.3097318E-1,-1.5283954E-1,-8.3111435E-1,-1.1134079E-1,3.2349896E-1,-2.7822098E-1,-1.1030841E0,4.7694623E-1,-5.093401E-1,7.760277E-2,6.239551E-1,-7.6338786E-1,-1.4150299E-1,-2.2415267E-1,3.9011672E-1,-1.6297485E-1,5.788029E-1,3.2335117E-1,1.030707E0,4.21486E-1,-2.6325458E-1,8.8588554E-1,-1.7848007E-2,-9.748369E-2,-4.7674213E-2,-3.6153935E-2,3.446747E-2,-7.577569E-2,-2.8238444E-2,-8.104778E-2,-3.0256214E-2,-3.735106E-2,-9.587749E-2,1.7837079E-3,-5.3042788E-2,-2.5213039E-2,-1.1644627E-1,-3.310397E-2,4.5401946E-2,4.855579E-2,-1.6479043E-2,-2.7793879E-2,-8.7545075E-2,-2.7567467E-2,3.7700843E-2,1.8471073E-2,5.249743E-2,-4.3378323E-2,2.1238169E-2,-1.06269225E-1,-4.487893E-2,7.763091E-2,-2.0693596E-2,1.7513992E-3,-7.1178205E-2,-5.2499708E-2,3.2355353E-2,5.9915762E-2,-3.4889746E-2,-1.1879351E-2,-8.349836E-2,2.9896997E-2,-3.444364E-2,-1.0463566E-2,-7.329662E-2,1.070354E-2,6.5577954E-2,-2.1427155E-2,2.9871652E-2,2.3494923E-2,8.3583E-2,3.5078272E-2,-7.6327864E-3,1.482851E-2,1.1963344E-1,4.5069277E-2,3.996212E-3,8.094048E-4,-8.9918956E-2,2.9004617E-2,8.187915E-2,-4.2797327E-2,4.691332E-2],"categories":[],"categories_nodes":[],"categories_segments":[],"categories_sizes":[],"default_left":[0,0,0,0,0,0,0,0,0,0,0,0,0,0,0,0,0,0,0,0,0,0,0,0,0,0,0,0,0,0,0,0,0,0,0,0,0,0,0,0,0,0,0,0,0,0,0,0,0,0,0,0,0,0,0,0,0,0,0,0,0,0,0,0,0,0,0,0,0,0,0,0,0,0,0,0,0,0,0,0,0,0,0,0,0,0,0,0,0,0,0,0,0,0,0,0,0,0,0,0,0,0,0,0,0,0,0,0,0,0,0,0,0,0,0,0,0,0,0,0,0,0,0],"id":5,"left_children":[1,3,5,7,9,11,13,15,17,19,21,23,25,27,29,31,33,35,37,39,41,43,45,47,49,51,53,55,57,59,61,-1,63,65,67,69,-1,71,73,75,77,79,81,83,85,87,89,91,93,95,97,99,101,103,105,107,109,111,113,115,117,119,121,-1,-1,-1,-1,-1,-1,-1,-1,-1,-1,-1,-1,-1,-1,-1,-1,-1,-1,-1,-1,-1,-1,-1,-1,-1,-1,-1,-1,-1,-1,-1,-1,-1,-1,-1,-1,-1,-1,-1,-1,-1,-1,-1,-1,-1,-1,-1,-1,-1,-1,-1,-1,-1,-1,-1,-1,-1,-1,-1,-1],"loss_changes":[9.535064E1,4.0462105E1,1.905878E1,4.0699463E0,1.744275E1,1.1583511E1,1.34387665E1,4.5209236E0,2.3710098E0,5.744831E0,1.1430309E1,4.6188507E0,1.0527521E1,7.767522E0,1.22469635E1,1.5994015E0,4.767788E0,1.6456223E-1,2.8509789E0,7.7689285E0,3.418007E0,9.224522E0,3.820918E0,4.827581E0,4.8823166E0,3.9961786E0,6.904521E0,5.5986342E0,3.8929157E0,6.10288E0,9.52179E0,0E0,4.7201538E-1,6.2010016E0,5.512642E0,4.5508337E-1,0E0,2.3279533E0,1.5472568E0,6.3859673E0,3.6876993E0,4.1718774E0,6.549139E-1,1.1263687E1,3.6027699E0,3.3569808E0,2.5457096E-1,3.224025E0,2.585457E0,6.825448E0,6.2274914E0,4.9713326E0,2.7906537E0,2.3771572E0,3.7220306E0,3.5314307E0,1.3161497E0,5.2586584E0,3.1464643E0,2.8369408E0,4.0962176E0,7.5027313E0,4.6902823E0,0E0,0E0,0E0,0E0,0E0,0E0,0E0,0E0,0E0,0E0,0E0,0E0,0E0,0E0,0E0,0E0,0E0,0E0,0E0,0E0,0E0,0E0,0E0,0E0,0E0,0E0,0E0,0E0,0E0,0E0,0E0,0E0,0E0,0E0,0E0,0E0,0E0,0E0,0E0,0E0,0E0,0E0,0E0,0E0,0E0,0E0,0E0,0E0,0E0,0E0,0E0,0E0,0E0,0E0,0E0,0E0,0E0,0E0,0E0,0E0],"parents":[2147483647,0,0,1,1,2,2,3,3,4,4,5,5,6,6,7,7,8,8,9,9,10,10,11,11,12,12,13,13,14,14,15,15,16,16,17,17,18,18,19,19,20,20,21,21,22,22,23,23,24,24,25,25,26,26,27,27,28,28,29,29,30,30,32,32,33,33,34,34,35,35,37,37,38,38,39,39,40,40,41,41,42,42,43,43,44,44,45,45,46,46,47,47,48,48,49,49,50,50,51,51,52,52,53,53,54,54,55,55,56,56,57,57,58,58,59,59,60,60,61,61,62,62],"right_children":[2,4,6,8,10,12,14,16,18,20,22,24,26,28,30,32,34,36,38,40,42,44,46,48,50,52,54,56,58,60,62,-1,64,66,68,70,-1,72,74,76,78,80,82,84,86,88,90,92,94,96,98,100,102,104,106,108,110,112,114,116,118,120,122,-1,-1,-1,-1,-1,-1,-1,-1,-1,-1,-1,-1,-1,-1,-1,-1,-1,-1,-1,-1,-1,-1,-1,-1,-1,-1,-1,-1,-1,-1,-1,-1,-1,-1,-1,-1,-1,-1,-1,-1,-1,-1,-1,-1,-1,-1,-1,-1,-1,-1,-1,-1,-1,-1,-1,-1,-1,-1,-1,-1],"split_conditions":[6.78E2,7.4642E4,7.9477E4,1E0,5.76E2,2.2451E5,1E0,5.39E2,1.96971E5,1.12817E5,1E0,3.7782E4,5E0,3E0,7.43E2,2E0,1.93341E5,1.06807E5,5.8022E4,5.26E2,1E0,5E0,2E0,4E0,3E0,6.1231E4,7.7E2,8.23E2,1.69568E5,7.29E2,1E0,-2.6733233E-2,6.2825E4,1.46263E5,2E0,6.06E2,-1.0572747E-1,2.95901E5,3.50799E5,1.64834E5,4.19601E5,1.16081E5,3E0,1.49409E5,3E0,4E0,6.36E2,2E0,3.1202E4,5.0865E4,1E0,3.6618E4,7.21E2,7.6E2,3.76019E5,1.61154E5,1.42551E5,1.5392E5,1.94749E5,4E0,3.63199E5,2E0,8.08E2,-9.748369E-2,-4.7674213E-2,-3.6153935E-2,3.446747E-2,-7.577569E-2,-2.8238444E-2,-8.104778E-2,-3.0256214E-2,-3.735106E-2,-9.587749E-2,1.7837079E-3,-5.3042788E-2,-2.5213039E-2,-1.1644627E-1,-3.310397E-2,4.5401946E-2,4.855579E-2,-1.6479043E-2,-2.7793879E-2,-8.7545075E-2,-2.7567467E-2,3.7700843E-2,1.8471073E-2,5.249743E-2,-4.3378323E-2,2.1238169E-2,-1.06269225E-1,-4.487893E-2,7.763091E-2,-2.0693596E-2,1.7513992E-3,-7.1178205E-2,-5.2499708E-2,3.2355353E-2,5.9915762E-2,-3.4889746E-2,-1.1879351E-2,-8.349836E-2,2.9896997E-2,-3.444364E-2,-1.0463566E-2,-7.329662E-2,1.070354E-2,6.5577954E-2,-2.1427155E-2,2.9871652E-2,2.3494923E-2,8.3583E-2,3.5078272E-2,-7.6327864E-3,1.482851E-2,1.1963344E-1,4.5069277E-2,3.996212E-3,8.094048E-4,-8.9918956E-2,2.9004617E-2,8.187915E-2,-4.2797327E-2,4.691332E-2],"split_indices":[4,3,3,6,4,5,0,4,5,3,10,3,1,1,4,1,5,5,3,4,11,1,6,1,1,3,4,4,3,4,10,0,3,5,7,4,0,5,5,5,5,3,1,3,7,12,4,6,3,3,11,3,4,4,5,3,3,3,5,12,5,1,4,0,0,0,0,0,0,0,0,0,0,0,0,0,0,0,0,0,0,0,0,0,0,0,0,0,0,0,0,0,0,0,0,0,0,0,0,0,0,0,0,0,0,0,0,0,0,0,0,0,0,0,0,0,0,0,0,0,0,0,0],"split_type":[0,0,0,0,0,0,0,0,0,0,0,0,0,0,0,0,0,0,0,0,0,0,0,0,0,0,0,0,0,0,0,0,0,0,0,0,0,0,0,0,0,0,0,0,0,0,0,0,0,0,0,0,0,0,0,0,0,0,0,0,0,0,0,0,0,0,0,0,0,0,0,0,0,0,0,0,0,0,0,0,0,0,0,0,0,0,0,0,0,0,0,0,0,0,0,0,0,0,0,0,0,0,0,0,0,0,0,0,0,0,0,0,0,0,0,0,0,0,0,0,0,0,0],"sum_hessian":[1.1668024E3,5.839819E2,5.828205E2,1.8002495E2,4.0395694E2,2.0561496E2,3.772055E2,1.2266748E2,5.7357475E1,1.7385538E2,2.3010158E2,8.877364E1,1.1684132E2,1.8614653E2,1.9105898E2,2.3212456E1,9.9455025E1,2.3436628E1,3.3920845E1,6.750921E1,1.0634617E2,2.0153102E2,2.8570559E1,1.8888716E1,6.9884926E1,4.5397224E1,7.144409E1,7.122288E1,1.1492365E2,6.971246E1,1.2134651E2,4.491948E0,1.8720509E1,3.380775E1,6.564728E1,9.045059E0,1.4391568E1,2.1711802E1,1.2209044E1,2.2111908E1,4.5397297E1,9.921539E1,7.1307707E0,8.069129E1,1.2083973E2,2.1384115E1,7.186444E0,7.190518E0,1.1698197E1,2.6350498E1,4.3534428E1,2.8738293E1,1.6658932E1,3.7647766E1,3.379633E1,6.0007076E1,1.1215805E1,1.0720862E2,7.7150397E0,5.3352325E1,1.636014E1,1.0834044E2,1.300608E1,1.3925714E1,4.794794E0,2.27753E1,1.103245E1,2.9116526E1,3.653075E1,5.5093403E0,3.5357194E0,9.459467E0,1.2252335E1,7.2938557E0,4.915189E0,8.3822E0,1.3729709E1,4.2059563E1,3.3377357E0,5.805322E0,9.341007E1,3.3303907E0,3.80038E0,5.7913383E1,2.2777905E1,9.585339E1,2.4986334E1,1.439629E1,6.9878263E0,4.0520864E0,3.1343572E0,4.1126604E0,3.0778575E0,5.2745028E0,6.4236946E0,7.8090496E0,1.854145E1,3.920529E1,4.329134E0,9.47835E0,1.9259941E1,5.881781E0,1.077715E1,3.4220432E1,3.4273353E0,2.1988485E1,1.1807843E1,5.061257E1,9.3945055E0,7.9697194E0,3.246086E0,8.405331E1,2.315531E1,3.232926E0,4.4821143E0,3.8234955E1,1.51173725E1,1.31666155E1,3.1935253E0,2.3312872E1,8.5027565E1,7.0702066E0,5.935873E0],"tree_param":{"num_deleted":"0","num_feature":"13","num_nodes":"123","size_leaf_vector":"1"}},{"base_weights":[-2.6518876E-2,-2.9390076E-1,2.0420192E-1,-4.010453E-1,-1.6013141E-1,-5.577371E-3,3.2770723E-1,1.546858E-1,-4.4068685E-1,-4.206671E-1,-1.2510689E-2,-1.9792604E-1,1.5318555E-1,4.4510117E-1,6.0013127E-2,-6.681223E-2,4.0992415E-1,-3.2546708E-1,-6.541113E-1,-3.048687E-1,-1.058452E0,-3.221018E-1,5.3888876E-2,9.468738E-2,-3.4736177E-1,-7.413447E-2,4.0617102E-1,3.3860055E-1,7.686585E-1,-3.83005E-1,2.8709987E-1,7.1292534E-2,9.409459E-2,-5.307439E-1,-2.3158592E-1,-5.5370456E-1,-1.10121E0,-6.609658E-2,-6.003892E-1,-9.544531E-2,-4.0003557E-2,2.54737E-1,-6.523926E-1,2.3893921E-1,-1.2966786E-1,3.305433E-1,-3.691038E-1,-5.5064607E-1,-2.3366253E-1,3.0818748E-1,-2.3893471E-1,8.7879485E-1,8.641736E-2,4.819092E-1,7.119817E-2,8.35634E-1,2.235518E-1,4.7252163E-2,-5.8038425E-1,4.085867E-1,-2.4284717E-1,-4.9402136E-2,3.7431613E-2,-9.5775705E-3,-6.0560927E-2,-3.6550563E-2,-8.221622E-3,-5.180008E-2,5.035491E-2,-1.030487E-1,-4.641518E-2,1.6717127E-2,-4.4041447E-2,1.4611254E-2,-5.4959234E-2,7.242105E-2,-2.3322102E-2,-8.041434E-2,-2.742978E-2,2.651894E-2,-2.2814624E-2,6.683456E-2,-1.6019613E-2,4.6282414E-2,-4.809095E-2,2.5226621E-2,-5.461654E-2,-5.488711E-2,4.106764E-3,2.9612859E-3,-4.206799E-2,5.2064255E-2,-5.922399E-2,-3.882669E-2,1.6159697E-2,1.0526777E-2,8.503089E-2,-6.252006E-2,1.974692E-2,2.8864115E-2,6.082532E-2,-6.45614E-2,1.1392106E-2,7.6787523E-3,7.069724E-2,5.6623433E-2,-2.2316238E-2,-8.733371E-2,-3.3273276E-2,5.280514E-2,1.17497025E-2,2.4328168E-2,-5.4781463E-2],"categories":[],"categories_nodes":[],"categories_segments":[],"categories_sizes":[],"default_left":[0,0,0,0,0,0,0,0,0,0,0,0,0,0,0,0,0,0,0,0,0,0,0,0,0,0,0,0,0,0,0,0,0,0,0,0,0,0,0,0,0,0,0,0,0,0,0,0,0,0,0,0,0,0,0,0,0,0,0,0,0,0,0,0,0,0,0,0,0,0,0,0,0,0,0,0,0,0,0,0,0,0,0,0,0,0,0,0,0,0,0,0,0,0,0,0,0,0,0,0,0,0,0,0,0,0,0,0,0,0,0,0,0],"id":6,"left_children":[1,3,5,7,9,11,13,15,17,19,21,23,25,27,29,-1,31,33,35,37,39,41,43,45,47,49,51,53,55,57,59,-1,61,63,65,67,69,71,73,-1,-1,75,77,79,81,83,85,87,89,91,93,95,97,99,101,103,105,-1,107,109,111,-1,-1,-1,-1,-1,-1,-1,-1,-1,-1,-1,-1,-1,-1,-1,-1,-1,-1,-1,-1,-1,-1,-1,-1,-1,-1,-1,-1,-1,-1,-1,-1,-1,-1,-1,-1,-1,-1,-1,-1,-1,-1,-1,-1,-1,-1,-1,-1,-1,-1,-1,-1],"loss_changes":[7.146311E1,7.6257515E0,1.6114655E1,6.6166115E0,9.236189E0,7.098071E0,1.2275246E1,5.529642E0,6.616417E0,6.093395E0,3.1915157E0,4.628069E0,7.354088E0,9.11153E0,1.2231973E1,0E0,2.498978E0,3.39114E0,3.7167168E0,5.247511E0,3.764801E-1,5.388835E0,4.3787155E0,4.0939975E0,1.4841099E0,4.353398E0,9.05626E0,7.8753643E0,2.2433586E0,8.272402E0,5.2646585E0,0E0,3.3155735E0,5.1591663E0,3.6357465E0,9.364578E0,8.752537E-1,5.786998E0,2.3877907E0,0E0,0E0,4.06625E0,1.5893974E0,3.2033641E0,4.5883393E0,6.0309887E0,2.9440498E0,2.0157838E0,3.695972E0,7.9884863E0,5.31611E0,3.1994534E0,5.3656898E0,4.2509193E0,4.691868E0,2.010395E0,2.3019826E0,0E0,2.47324E0,4.2233076E0,3.9764037E0,0E0,0E0,0E0,0E0,0E0,0E0,0E0,0E0,0E0,0E0,0E0,0E0,0E0,0E0,0E0,0E0,0E0,0E0,0E0,0E0,0E0,0E0,0E0,0E0,0E0,0E0,0E0,0E0,0E0,0E0,0E0,0E0,0E0,0E0,0E0,0E0,0E0,0E0,0E0,0E0,0E0,0E0,0E0,0E0,0E0,0E0,0E0,0E0,0E0,0E0,0E0,0E0],"parents":[2147483647,0,0,1,1,2,2,3,3,4,4,5,5,6,6,7,7,8,8,9,9,10,10,11,11,12,12,13,13,14,14,16,16,17,17,18,18,19,19,20,20,21,21,22,22,23,23,24,24,25,25,26,26,27,27,28,28,29,29,30,30,32,32,33,33,34,34,35,35,36,36,37,37,38,38,41,41,42,42,43,43,44,44,45,45,46,46,47,47,48,48,49,49,50,50,51,51,52,52,53,53,54,54,55,55,56,56,58,58,59,59,60,60],"right_children":[2,4,6,8,10,12,14,16,18,20,22,24,26,28,30,-1,32,34,36,38,40,42,44,46,48,50,52,54,56,58,60,-1,62,64,66,68,70,72,74,-1,-1,76,78,80,82,84,86,88,90,92,94,96,98,100,102,104,106,-1,108,110,112,-1,-1,-1,-1,-1,-1,-1,-1,-1,-1,-1,-1,-1,-1,-1,-1,-1,-1,-1,-1,-1,-1,-1,-1,-1,-1,-1,-1,-1,-1,-1,-1,-1,-1,-1,-1,-1,-1,-1,-1,-1,-1,-1,-1,-1,-1,-1,-1,-1,-1,-1,-1],"split_conditions":[6.66E2,5.92E2,3E0,7.8628E4,3E0,7.49E2,6.3E1,5.16E2,1E0,1E0,2.9E1,2.07787E5,2E0,8.06E2,2E0,-6.681223E-2,5.47E2,5.28E2,7.4E1,5.6E1,3.49357E5,2.2E1,5.5E1,2E0,2E0,1E0,2.19405E5,1E0,1E0,1.31256E5,1E0,7.1292534E-2,2E0,3E0,3E0,6.9E1,4E0,1E0,8.8541E4,-9.544531E-2,-4.0003557E-2,3E0,6.13E2,3.93185E5,5E0,1E0,7.01E2,7.34E2,4E0,3.30205E5,3.09486E5,8.6929E4,2.5E1,5.1E1,8.4797E4,8.1611E4,8.24E2,4.7252163E-2,6.7E1,2E0,2.31417E5,-4.9402136E-2,3.7431613E-2,-9.5775705E-3,-6.0560927E-2,-3.6550563E-2,-8.221622E-3,-5.180008E-2,5.035491E-2,-1.030487E-1,-4.641518E-2,1.6717127E-2,-4.4041447E-2,1.4611254E-2,-5.4959234E-2,7.242105E-2,-2.3322102E-2,-8.041434E-2,-2.742978E-2,2.651894E-2,-2.2814624E-2,6.683456E-2,-1.6019613E-2,4.6282414E-2,-4.809095E-2,2.5226621E-2,-5.461654E-2,-5.488711E-2,4.106764E-3,2.9612859E-3,-4.206799E-2,5.2064255E-2,-5.922399E-2,-3.882669E-2,1.6159697E-2,1.0526777E-2,8.503089E-2,-6.252006E-2,1.974692E-2,2.8864115E-2,6.082532E-2,-6.45614E-2,1.1392106E-2,7.6787523E-3,7.069724E-2,5.6623433E-2,-2.2316238E-2,-8.733371E-2,-3.3273276E-2,5.280514E-2,1.17497025E-2,2.4328168E-2,-5.4781463E-2],"split_indices":[4,4,1,5,1,4,2,4,6,10,2,5,1,4,12,0,4,4,2,2,5,2,2,6,12,1,5,6,10,5,9,0,12,1,1,2,12,6,5,0,0,12,4,5,1,9,4,4,12,5,5,5,2,2,5,5,4,0,2,7,5,0,0,0,0,0,0,0,0,0,0,0,0,0,0,0,0,0,0,0,0,0,0,0,0,0,0,0,0,0,0,0,0,0,0,0,0,0,0,0,0,0,0,0,0,0,0,0,0,0,0,0,0],"split_type":[0,0,0,0,0,0,0,0,0,0,0,0,0,0,0,0,0,0,0,0,0,0,0,0,0,0,0,0,0,0,0,0,0,0,0,0,0,0,0,0,0,0,0,0,0,0,0,0,0,0,0,0,0,0,0,0,0,0,0,0,0,0,0,0,0,0,0,0,0,0,0,0,0,0,0,0,0,0,0,0,0,0,0,0,0,0,0,0,0,0,0,0,0,0,0,0,0,0,0,0,0,0,0,0,0,0,0,0,0,0,0,0,0],"sum_hessian":[1.1564396E3,5.3553516E2,6.209044E2,2.962507E2,2.3928442E2,2.3044244E2,3.90462E2,1.953196E1,2.7671875E2,8.587466E1,1.5340977E2,1.04088135E2,1.2635431E2,2.7096912E2,1.1949289E2,3.538247E0,1.5993712E1,1.8134334E2,9.5375404E1,7.392973E1,1.1944925E1,2.641193E1,1.2699784E2,3.531108E1,6.8777054E1,6.6925446E1,5.9428864E1,2.0540535E2,6.5563774E1,4.026136E1,7.923153E1,5.6155725E0,1.03781395E1,5.5448494E1,1.25894844E2,7.971248E1,1.5662926E1,4.1567802E1,3.2361935E1,8.708926E0,3.2359986E0,9.700017E0,1.6711914E1,6.3091373E1,6.3906467E1,2.359792E1,1.1713162E1,2.3291277E1,4.5485775E1,1.989673E1,4.7028713E1,2.3276226E1,3.6152637E1,1.3321135E2,7.219399E1,5.7914978E1,7.648796E0,6.4502573E0,3.38111E1,6.464182E1,1.45897045E1,3.3495073E0,7.028632E0,2.0229647E1,3.5218845E1,4.487046E1,8.102438E1,7.427673E1,5.4357457E0,1.0444153E1,5.2187734E0,2.6875935E1,1.4691866E1,3.1122904E0,2.9249643E1,4.1275125E0,5.5725045E0,6.759734E0,9.95218E0,5.3935226E1,9.156147E0,3.6164665E0,6.029E1,1.8936584E1,4.661336E0,3.678765E0,8.034397E0,1.8899303E1,4.391973E0,2.4065304E1,2.1420473E1,1.52822275E1,4.6145024E0,3.0104923E1,1.692379E1,4.939998E0,1.8336227E1,5.0357933E0,3.1116846E1,9.4430046E1,3.8781303E1,4.639287E0,6.755471E1,3.7179024E0,5.4197075E1,3.687138E0,3.961658E0,6.856998E0,2.6954103E1,3.2189476E1,3.245235E1,6.659435E0,7.9302697E0],"tree_param":{"num_deleted":"0","num_feature":"13","num_nodes":"113","size_leaf_vector":"1"}},{"base_weights":[8.849472E-3,-2.4466197E-1,2.2213162E-1,-3.8838398E-1,-1.07974164E-1,3.2488158E-1,1.6698524E-2,1.2466702E-1,-4.2611712E-1,-4.214952E-2,-5.791846E-1,1.8538885E-1,4.6452627E-1,7.3994406E-2,-5.654849E-1,-4.5382388E-2,3.208902E-1,-3.4675866E-1,-5.7978004E-1,-1.4208405E-1,3.7711054E-1,-2.6758513E-1,-7.979092E-1,4.2638418E-1,4.138973E-2,2.8814286E-1,6.627626E-1,1.2497691E-1,-6.2502897E-1,-8.701413E-2,-2.5883085E-1,-3.9758157E-2,5.748558E-2,-3.8044178E-1,3.9301742E-2,-6.368438E-1,6.740682E-2,-3.2793322E-1,-2.9773314E-2,1.4297114E-2,5.5504173E-1,3.4757033E-1,-7.514186E-2,-9.967041E-2,-3.3848992E-1,3.0648905E-1,7.2127926E-1,7.077607E-1,-3.5932068E-2,4.2724684E-1,-4.1622397E-2,5.824661E-1,1.048234E0,-2.2874145E-1,2.2900724E-1,-8.119587E-2,-2.4580765E-1,-7.0199974E-2,2.9051155E-1,2.4536502E-2,-2.9152228E-2,-4.497479E-2,-2.1324169E-2,-4.176527E-2,-7.510982E-2,-5.263746E-3,1.4786301E-2,1.21287145E-2,-3.411721E-2,2.025457E-3,-8.1563756E-2,-2.3008587E-2,6.60404E-2,3.1317316E-2,9.619223E-2,-2.5239805E-2,7.723067E-2,2.8277375E-2,-5.8484476E-2,4.0487852E-2,2.4905216E-3,-4.458887E-3,7.2086826E-2,1.5200198E-2,9.1664396E-2,2.116546E-3,-6.560758E-2,4.041475E-2,9.584979E-4,-5.0778918E-2,1.122195E-2,6.76332E-2,3.518374E-2,4.0733293E-2,1.0894675E-1,1.00731775E-2,-3.4220364E-2,7.182403E-2,1.34436935E-2,3.0274445E-3,-3.4945235E-2,7.158348E-2,-3.6786426E-2],"categories":[],"categories_nodes":[],"categories_segments":[],"categories_sizes":[],"default_left":[0,0,0,0,0,0,0,0,0,0,0,0,0,0,0,0,0,0,0,0,0,0,0,0,0,0,0,0,0,0,0,0,0,0,0,0,0,0,0,0,0,0,0,0,0,0,0,0,0,0,0,0,0,0,0,0,0,0,0,0,0,0,0,0,0,0,0,0,0,0,0,0,0,0,0,0,0,0,0,0,0,0,0,0,0,0,0,0,0,0,0,0,0,0,0,0,0,0,0,0,0,0,0],"id":7,"left_children":[1,3,5,7,9,11,13,15,17,19,21,23,25,27,29,-1,31,33,35,37,39,41,43,45,47,49,51,53,55,-1,57,59,-1,61,-1,63,65,67,69,71,73,75,-1,-1,77,79,81,83,85,87,89,91,93,95,97,-1,99,-1,101,-1,-1,-1,-1,-1,-1,-1,-1,-1,-1,-1,-1,-1,-1,-1,-1,-1,-1,-1,-1,-1,-1,-1,-1,-1,-1,-1,-1,-1,-1,-1,-1,-1,-1,-1,-1,-1,-1,-1,-1,-1,-1,-1,-1],"loss_changes":[6.3475307E1,1.0495834E1,1.3452023E1,5.107601E0,8.546195E0,8.191265E0,7.167341E0,2.7156837E0,2.7674522E0,1.0257033E1,2.0894222E0,7.417305E0,7.21072E0,7.040347E0,2.8018427E0,0E0,2.2052279E0,4.788412E0,3.049673E0,4.110114E0,3.0357308E0,6.706454E0,3.560461E0,2.6083794E0,6.992557E0,5.2373257E0,2.4505577E0,6.7831345E0,1.7387877E0,0E0,4.823829E0,1.1135377E0,0E0,3.1056328E0,0E0,2.1068401E0,1.2948732E-1,3.5729375E0,6.794428E0,4.2882752E0,2.8762856E0,3.9051838E0,0E0,0E0,3.2262082E0,3.2069693E0,3.178749E0,2.981772E0,5.995757E0,2.5869074E0,3.8293388E0,2.7831764E0,1.9774914E0,3.0232246E0,5.6321316E0,0E0,4.5735267E-1,0E0,3.9807448E0,0E0,0E0,0E0,0E0,0E0,0E0,0E0,0E0,0E0,0E0,0E0,0E0,0E0,0E0,0E0,0E0,0E0,0E0,0E0,0E0,0E0,0E0,0E0,0E0,0E0,0E0,0E0,0E0,0E0,0E0,0E0,0E0,0E0,0E0,0E0,0E0,0E0,0E0,0E0,0E0,0E0,0E0,0E0,0E0],"parents":[2147483647,0,0,1,1,2,2,3,3,4,4,5,5,6,6,7,7,8,8,9,9,10,10,11,11,12,12,13,13,14,14,16,16,17,17,18,18,19,19,20,20,21,21,22,22,23,23,24,24,25,25,26,26,27,27,28,28,30,30,31,31,33,33,35,35,36,36,37,37,38,38,39,39,40,40,41,41,44,44,45,45,46,46,47,47,48,48,49,49,50,50,51,51,52,52,53,53,54,54,56,56,58,58],"right_children":[2,4,6,8,10,12,14,16,18,20,22,24,26,28,30,-1,32,34,36,38,40,42,44,46,48,50,52,54,56,-1,58,60,-1,62,-1,64,66,68,70,72,74,76,-1,-1,78,80,82,84,86,88,90,92,94,96,98,-1,100,-1,102,-1,-1,-1,-1,-1,-1,-1,-1,-1,-1,-1,-1,-1,-1,-1,-1,-1,-1,-1,-1,-1,-1,-1,-1,-1,-1,-1,-1,-1,-1,-1,-1,-1,-1,-1,-1,-1,-1,-1,-1,-1,-1,-1,-1],"split_conditions":[6.63E2,5.79E2,1E0,8.1611E4,3E0,1E0,1E0,5.2E2,1E0,3E0,2E0,1E0,7.59E2,4E0,1E0,-4.5382388E-2,1E0,5.76E2,4.20948E5,3E0,3E0,6.19E2,6.11E2,3.44114E5,9.1727E4,7.29E2,3.91684E5,7.07E2,3E0,-8.701413E-2,7.48E2,5.53E2,5.748558E-2,5.28E2,3.9301742E-2,3.40034E5,4.28249E5,1.13317E5,6.59E2,3.66738E5,6.48E2,1E0,-7.514186E-2,-9.967041E-2,2.3368E5,2.27524E5,2E0,7.0831E4,1E0,1E0,7.35E2,1.63293E5,3E0,1E0,7.21E2,-8.119587E-2,4E0,-7.0199974E-2,8.15E2,2.4536502E-2,-2.9152228E-2,-4.497479E-2,-2.1324169E-2,-4.176527E-2,-7.510982E-2,-5.263746E-3,1.4786301E-2,1.21287145E-2,-3.411721E-2,2.025457E-3,-8.1563756E-2,-2.3008587E-2,6.60404E-2,3.1317316E-2,9.619223E-2,-2.5239805E-2,7.723067E-2,2.8277375E-2,-5.8484476E-2,4.0487852E-2,2.4905216E-3,-4.458887E-3,7.2086826E-2,1.5200198E-2,9.1664396E-2,2.116546E-3,-6.560758E-2,4.041475E-2,9.584979E-4,-5.0778918E-2,1.122195E-2,6.76332E-2,3.518374E-2,4.0733293E-2,1.0894675E-1,1.00731775E-2,-3.4220364E-2,7.182403E-2,1.34436935E-2,3.0274445E-3,-3.4945235E-2,7.158348E-2,-3.6786426E-2],"split_indices":[4,4,6,5,6,0,11,4,6,7,7,7,4,6,7,0,0,4,5,1,1,4,4,5,5,4,5,4,12,0,4,4,0,4,0,5,5,5,4,5,4,0,0,0,5,5,1,5,11,9,4,5,12,7,4,0,12,0,4,0,0,0,0,0,0,0,0,0,0,0,0,0,0,0,0,0,0,0,0,0,0,0,0,0,0,0,0,0,0,0,0,0,0,0,0,0,0,0,0,0,0,0,0],"split_type":[0,0,0,0,0,0,0,0,0,0,0,0,0,0,0,0,0,0,0,0,0,0,0,0,0,0,0,0,0,0,0,0,0,0,0,0,0,0,0,0,0,0,0,0,0,0,0,0,0,0,0,0,0,0,0,0,0,0,0,0,0,0,0,0,0,0,0,0,0,0,0,0,0,0,0,0,0,0,0,0,0,0,0,0,0,0,0,0,0,0,0,0,0,0,0,0,0,0,0,0,0,0,0],"sum_hessian":[1.1719532E3,5.354086E2,6.365446E2,2.6009128E2,2.7531738E2,4.2392947E2,2.1261513E2,1.7660505E1,2.4243076E2,2.4252753E2,3.2789867E1,2.1324452E2,2.1068495E2,1.9436E2,1.8255136E1,3.4839542E0,1.4176552E1,1.6201538E2,8.041539E1,1.963797E2,4.6147816E1,1.4440718E1,1.834915E1,7.902617E1,1.3421835E2,1.12785805E2,9.789914E1,1.8191354E2,1.2446455E1,5.8116827E0,1.2443455E1,7.9064035E0,6.2701483E0,1.5628001E2,5.735361E0,7.391421E1,6.5011783E0,7.324904E1,1.2313067E2,1.5540358E1,3.060746E1,7.789429E0,6.6512885E0,8.4236E0,9.9255495E0,5.7633503E1,2.139267E1,1.3106978E1,1.21111374E2,7.9116646E1,3.3669167E1,8.30999E1,1.4799246E1,4.1070168E1,1.4084337E2,5.3101254E0,7.13633E0,5.5714874E0,6.8719673E0,3.8514009E0,4.0550027E0,5.868897E1,9.759105E1,5.5537296E1,1.8376911E1,3.2518876E0,3.249291E0,1.2393376E1,6.085566E1,1.1756153E2,5.569141E0,1.179581E1,3.744548E0,2.5714603E1,4.8928566E0,3.993132E0,3.796297E0,3.6288137E0,6.2967353E0,3.292669E1,2.4706812E1,4.1497836E0,1.7242886E1,6.664017E0,6.4429617E0,1.13080795E2,8.030579E0,6.643206E1,1.2684584E1,7.3179264E0,2.6351238E1,2.7496462E1,5.5603436E1,6.407903E0,8.391342E0,1.4894451E1,2.6175716E1,1.0618814E1,1.3022456E2,3.1944215E0,3.9419084E0,3.6998265E0,3.1721408E0],"tree_param":{"num_deleted":"0","num_feature":"13","num_nodes":"103","size_leaf_vector":"1"}},{"base_weights":[6.47636E-4,-3.1442964E-1,1.3954487E-1,-2.3916972E-1,-5.3799677E-1,1.9326827E-1,-2.5738195E-1,-2.0703036E-1,-6.798038E-2,-2.6134074E-1,-7.7816087E-1,6.795374E-2,3.4679297E-1,5.177399E-2,-5.0742537E-1,-3.354018E-1,-4.665284E-2,-4.0679738E-1,5.4986402E-2,-4.830164E-1,-1.0642704E0,-1.1803348E-1,1.7352082E-1,1.8446371E-1,5.044838E-1,-3.40831E-1,4.161681E-1,-2.3173726E-1,-7.7945846E-1,5.413298E-2,-3.629335E-1,2.5650604E-2,-4.807934E-1,-9.6776444E-1,-2.4759172E-1,-9.79525E-1,-2.2787315E-1,-1.1687802E0,-2.70921E-2,2.1476428E-1,-1.9726786E-1,3.5719627E-1,5.285121E-2,2.9132223E-1,-1.5207884E-1,8.216633E-1,3.4050685E-1,2.6647555E-2,-5.8271295E-1,-4.2638786E-2,6.407078E-1,-8.024961E-1,3.0731557E-2,6.838248E-3,-9.3047917E-1,2.7247777E-2,-3.2250028E-2,6.810981E-3,-3.743358E-2,-6.090624E-2,1.2051065E-3,-3.7461236E-2,-9.628239E-2,1.4411661E-2,-5.0501034E-2,-3.852518E-2,-9.787945E-2,-7.460664E-2,1.0215356E-2,-5.0330307E-2,-1.0083403E-1,7.5393715E-3,6.40127E-2,-4.911812E-3,-3.214337E-2,5.1039293E-2,1.7178357E-2,-8.715391E-3,2.5811361E-2,2.6823437E-2,-2.3953782E-2,-3.8080014E-2,7.582497E-3,7.362285E-2,-1.0717047E-2,2.7131997E-3,4.2594045E-2,-6.0944278E-2,1.0626962E-2,2.3202185E-2,8.193481E-2,-8.508415E-2,-3.604911E-2,-2.710093E-2,4.967887E-2,-9.3448944E-2,-3.6701147E-2],"categories":[],"categories_nodes":[],"categories_segments":[],"categories_sizes":[],"default_left":[0,0,0,0,0,0,0,0,0,0,0,0,0,0,0,0,0,0,0,0,0,0,0,0,0,0,0,0,0,0,0,0,0,0,0,0,0,0,0,0,0,0,0,0,0,0,0,0,0,0,0,0,0,0,0,0,0,0,0,0,0,0,0,0,0,0,0,0,0,0,0,0,0,0,0,0,0,0,0,0,0,0,0,0,0,0,0,0,0,0,0,0,0,0,0,0,0],"id":8,"left_children":[1,3,5,7,9,11,13,15,-1,17,19,21,23,25,27,29,31,33,-1,35,37,39,41,43,45,47,49,51,53,-1,55,57,59,61,63,65,67,69,-1,71,73,75,77,79,81,83,85,-1,87,-1,89,91,93,-1,95,-1,-1,-1,-1,-1,-1,-1,-1,-1,-1,-1,-1,-1,-1,-1,-1,-1,-1,-1,-1,-1,-1,-1,-1,-1,-1,-1,-1,-1,-1,-1,-1,-1,-1,-1,-1,-1,-1,-1,-1,-1,-1],"loss_changes":[5.072983E1,5.8387604E0,1.720552E1,5.0663958E0,5.67828E0,1.3620285E1,7.4734406E0,5.2364225E0,0E0,6.1637125E0,3.4446964E0,7.7113333E0,8.059166E0,6.434403E0,3.8206873E0,4.189127E0,3.608841E0,3.1184769E0,0E0,2.932016E0,1.3463783E0,3.7980103E0,5.528382E0,5.7445292E0,8.09219E0,3.7350845E0,5.2991643E0,4.207533E0,3.5321312E0,0E0,4.0516376E0,2.9514725E0,2.2939386E0,3.7482882E-1,5.1408005E0,4.0108252E-1,4.568098E0,1.8000412E-1,0E0,1.8907316E0,3.1865678E0,3.825819E0,6.679682E0,3.2343006E0,3.1521916E0,5.2267E0,6.326048E0,0E0,2.1962748E0,0E0,2.2938023E0,3.3209467E-1,4.5917873E0,0E0,1.9959755E0,0E0,0E0,0E0,0E0,0E0,0E0,0E0,0E0,0E0,0E0,0E0,0E0,0E0,0E0,0E0,0E0,0E0,0E0,0E0,0E0,0E0,0E0,0E0,0E0,0E0,0E0,0E0,0E0,0E0,0E0,0E0,0E0,0E0,0E0,0E0,0E0,0E0,0E0,0E0,0E0,0E0,0E0],"parents":[2147483647,0,0,1,1,2,2,3,3,4,4,5,5,6,6,7,7,9,9,10,10,11,11,12,12,13,13,14,14,15,15,16,16,17,17,19,19,20,20,21,21,22,22,23,23,24,24,25,25,26,26,27,27,28,28,30,30,31,31,32,32,33,33,34,34,35,35,36,36,37,37,39,39,40,40,41,41,42,42,43,43,44,44,45,45,46,46,48,48,50,50,51,51,52,52,54,54],"right_children":[2,4,6,8,10,12,14,16,-1,18,20,22,24,26,28,30,32,34,-1,36,38,40,42,44,46,48,50,52,54,-1,56,58,60,62,64,66,68,70,-1,72,74,76,78,80,82,84,86,-1,88,-1,90,92,94,-1,96,-1,-1,-1,-1,-1,-1,-1,-1,-1,-1,-1,-1,-1,-1,-1,-1,-1,-1,-1,-1,-1,-1,-1,-1,-1,-1,-1,-1,-1,-1,-1,-1,-1,-1,-1,-1,-1,-1,-1,-1,-1,-1],"split_conditions":[6.11E2,2E0,1E0,6.06E2,2E0,7.44E2,2.36233E5,5.6E2,-6.798038E-2,5.96E2,5.61E2,3E0,1E0,1.36264E5,2E0,6.1484E4,1E0,5.23E2,5.4986402E-2,4E1,6.03E2,1E0,2.06146E5,2E0,1.90508E5,6.8991E4,2E0,2.95901E5,2.68695E5,5.413298E-2,5.03E2,1E0,2.3518E5,5.09E2,2.40771E5,3E0,5E0,2E0,-2.70921E-2,3E0,3.04577E5,1E0,3.60511E5,1E0,1E0,1E0,3E0,2.6647555E-2,7E1,-4.2638786E-2,1.90508E5,4.4E1,7.75E2,6.838248E-3,3E0,2.7247777E-2,-3.2250028E-2,6.810981E-3,-3.743358E-2,-6.090624E-2,1.2051065E-3,-3.7461236E-2,-9.628239E-2,1.4411661E-2,-5.0501034E-2,-3.852518E-2,-9.787945E-2,-7.460664E-2,1.0215356E-2,-5.0330307E-2,-1.0083403E-1,7.5393715E-3,6.40127E-2,-4.911812E-3,-3.214337E-2,5.1039293E-2,1.7178357E-2,-8.715391E-3,2.5811361E-2,2.6823437E-2,-2.3953782E-2,-3.8080014E-2,7.582497E-3,7.362285E-2,-1.0717047E-2,2.7131997E-3,4.2594045E-2,-6.0944278E-2,1.0626962E-2,2.3202185E-2,8.193481E-2,-8.508415E-2,-3.604911E-2,-2.710093E-2,4.967887E-2,-9.3448944E-2,-3.6701147E-2],"split_indices":[4,6,10,4,7,4,5,4,0,4,4,1,0,5,7,5,9,4,0,2,4,1,5,6,5,5,1,5,5,0,4,6,5,4,5,1,1,1,0,6,5,7,5,11,7,11,1,0,2,0,5,2,4,0,7,0,0,0,0,0,0,0,0,0,0,0,0,0,0,0,0,0,0,0,0,0,0,0,0,0,0,0,0,0,0,0,0,0,0,0,0,0,0,0,0,0,0],"split_type":[0,0,0,0,0,0,0,0,0,0,0,0,0,0,0,0,0,0,0,0,0,0,0,0,0,0,0,0,0,0,0,0,0,0,0,0,0,0,0,0,0,0,0,0,0,0,0,0,0,0,0,0,0,0,0,0,0,0,0,0,0,0,0,0,0,0,0,0,0,0,0,0,0,0,0,0,0,0,0,0,0,0,0,0,0,0,0,0,0,0,0,0,0,0,0,0,0],"sum_hessian":[1.1571823E3,3.5366278E2,8.0351953E2,2.661409E2,8.7521866E1,7.0818146E2,9.5338104E1,2.5410468E2,1.2036234E1,4.1641403E1,4.5880466E1,3.9070837E2,3.1747305E2,4.2984554E1,5.2353546E1,1.4052917E2,1.1357549E2,3.6600723E1,5.040679E0,2.3906872E1,2.1973595E1,1.4142639E2,2.4928198E2,1.5750497E2,1.5996808E2,2.0722458E1,2.2262096E1,2.6921846E1,2.5431702E1,3.097238E0,1.3743195E2,9.816725E1,1.5408237E1,6.968444E0,2.963228E1,7.15131E0,1.6755562E1,1.8673363E1,3.3002312E0,2.6867567E1,1.1455883E2,9.806051E1,1.5122147E2,1.1964866E2,3.785631E1,5.3149857E1,1.0681823E2,5.373592E0,1.53488655E1,3.9961731E0,1.8265923E1,7.832335E0,1.908951E1,3.8449025E0,2.15868E1,7.023107E0,1.3040883E2,8.834691E1,9.820342E0,9.498831E0,5.9094067E0,3.1919801E0,3.7764637E0,1.4262331E1,1.536995E1,3.3294644E0,3.8218453E0,5.0747924E0,1.168077E1,3.8525436E0,1.4820819E1,2.3243202E1,3.6243658E0,6.9613304E1,4.4945522E1,3.1835726E1,6.622478E1,9.4903824E1,5.6317646E1,1.1176231E2,7.8863535E0,1.5971211E1,2.18851E1,4.821134E1,4.9385157E0,4.157635E1,6.5241875E1,1.2224604E1,3.1242614E0,1.0458342E1,7.807582E0,3.3353937E0,4.496941E0,1.200228E1,7.0872307E0,1.3373441E1,8.213359E0],"tree_param":{"num_deleted":"0","num_feature":"13","num_nodes":"97","size_leaf_vector":"1"}},{"base_weights":[-2.0715386E-2,-1.5799803E-1,5.859325E-2,1.5586264E-1,-2.1626142E-1,9.482803E-2,-2.0407847E-1,-4.8959766E-2,3.536282E-1,-1.25154E-1,-3.093823E-1,1.2927645E-1,-1.7527772E-1,-4.071944E-1,7.0210667E-3,2.9121083E-1,-3.059995E-1,1.9104184E-1,8.019869E-2,-5.536031E-1,-6.616483E-2,-3.4530294E-1,3.191487E-1,1.9352147E-1,-2.404938E-2,-3.3658615E-1,2.4474044E-1,3.8261086E-2,-4.9225426E-1,-6.0847934E-2,1.4924173E-1,4.901139E-1,-2.8731432E-2,-2.4488907E-2,-5.761295E-1,-4.404808E-2,3.278475E-1,-7.0188314E-1,1.0342685E-2,-1.2039623E-2,-4.814145E-1,-2.935442E-1,-6.096481E-1,5.3490218E-2,-2.4992034E-2,1.13445915E-1,5.0128716E-1,-2.2121395E-1,1.08002245E-1,-6.5861756E-1,-6.119153E-2,5.078122E-1,-5.9263114E-2,-1.0662228E0,-3.0614626E-1,3.1280237E-1,-3.2805264E-1,7.0988517E-3,6.381184E-2,-2.7291771E-2,4.4054635E-2,-3.749509E-3,-8.057228E-2,3.8244523E-2,-1.676778E-2,-2.9537996E-2,-7.839764E-2,4.704805E-3,-3.3026062E-2,-2.2922756E-2,-8.1048496E-2,-3.4643445E-2,-1.34619605E-2,-1.2343609E-3,-5.8529444E-2,2.0046685E-2,-9.730235E-3,5.566297E-2,5.4510552E-3,-2.4497645E-2,7.5382106E-2,1.3527696E-2,-7.105853E-2,-7.077271E-2,-2.0242866E-2,2.711797E-2,-3.7685525E-2,2.2131613E-2,7.295465E-2,-3.0808212E-2,-1.0834518E-1,2.2758426E-2,-4.837497E-2,-4.648612E-3,5.5969257E-2,-7.373726E-2,2.0168204E-2],"categories":[],"categories_nodes":[],"categories_segments":[],"categories_sizes":[],"default_left":[0,0,0,0,0,0,0,0,0,0,0,0,0,0,0,0,0,0,0,0,0,0,0,0,0,0,0,0,0,0,0,0,0,0,0,0,0,0,0,0,0,0,0,0,0,0,0,0,0,0,0,0,0,0,0,0,0,0,0,0,0,0,0,0,0,0,0,0,0,0,0,0,0,0,0,0,0,0,0,0,0,0,0,0,0,0,0,0,0,0,0,0,0,0,0,0,0],"id":9,"left_children":[1,3,5,7,9,11,13,15,17,19,21,23,25,27,29,31,33,35,-1,37,39,41,43,45,47,49,51,-1,53,-1,55,57,-1,59,61,-1,63,65,-1,67,69,71,73,-1,-1,75,77,79,81,83,85,87,-1,89,91,93,95,-1,-1,-1,-1,-1,-1,-1,-1,-1,-1,-1,-1,-1,-1,-1,-1,-1,-1,-1,-1,-1,-1,-1,-1,-1,-1,-1,-1,-1,-1,-1,-1,-1,-1,-1,-1,-1,-1,-1,-1],"loss_changes":[1.2611167E1,7.788846E0,7.0088406E0,2.7304873E0,2.9994698E0,6.033663E0,3.8335142E0,3.0428913E0,3.416308E0,4.580662E0,4.0932293E0,5.654072E0,5.0619164E0,3.6659236E0,5.0034833E0,2.1231134E0,1.4862213E0,3.0804772E0,0E0,2.3157158E0,3.6288733E0,2.1109009E0,2.4285772E0,9.906416E0,4.4562545E0,4.706435E0,5.8137274E0,0E0,4.165185E0,0E0,3.1180208E0,1.4042504E0,0E0,2.137724E0,2.239499E0,0E0,2.0988584E0,1.3226271E0,0E0,4.1159286E0,1.6393018E0,2.4065838E0,1.9075336E0,0E0,0E0,1.04142685E1,6.9600487E0,7.0746765E0,6.396495E0,2.0286894E0,5.072558E0,1.349616E0,0E0,1.419693E0,6.0181856E0,4.241501E0,3.7958221E0,0E0,0E0,0E0,0E0,0E0,0E0,0E0,0E0,0E0,0E0,0E0,0E0,0E0,0E0,0E0,0E0,0E0,0E0,0E0,0E0,0E0,0E0,0E0,0E0,0E0,0E0,0E0,0E0,0E0,0E0,0E0,0E0,0E0,0E0,0E0,0E0,0E0,0E0,0E0,0E0],"parents":[2147483647,0,0,1,1,2,2,3,3,4,4,5,5,6,6,7,7,8,8,9,9,10,10,11,11,12,12,13,13,14,14,15,15,16,16,17,17,19,19,20,20,21,21,22,22,23,23,24,24,25,25,26,26,28,28,30,30,31,31,33,33,34,34,36,36,37,37,39,39,40,40,41,41,42,42,45,45,46,46,47,47,48,48,49,49,50,50,51,51,53,53,54,54,55,55,56,56],"right_children":[2,4,6,8,10,12,14,16,18,20,22,24,26,28,30,32,34,36,-1,38,40,42,44,46,48,50,52,-1,54,-1,56,58,-1,60,62,-1,64,66,-1,68,70,72,74,-1,-1,76,78,80,82,84,86,88,-1,90,92,94,96,-1,-1,-1,-1,-1,-1,-1,-1,-1,-1,-1,-1,-1,-1,-1,-1,-1,-1,-1,-1,-1,-1,-1,-1,-1,-1,-1,-1,-1,-1,-1,-1,-1,-1,-1,-1,-1,-1,-1,-1],"split_conditions":[3E0,1.13317E5,1E0,3E0,3E0,3E0,1E0,4.6E1,1.04423E5,2.5E1,2E0,6.3E1,6.1E1,2.3E1,3E1,9.9134E4,2E0,2.7E1,8.019869E-2,3E0,3E0,7.4E1,1E0,3E0,7.1E1,3E0,3.65355E5,3.8261086E-2,1.52005E5,-6.0847934E-2,3.54805E5,7.2029E4,-2.8731432E-2,6.8E1,5.7E1,-4.404808E-2,7.2E1,2.55894E5,1.0342685E-2,1E0,1E0,1E0,1.93341E5,5.3490218E-2,-2.4992034E-2,2E0,4E0,4.32361E5,4.26899E5,2.98947E5,2.66058E5,2.76631E5,-5.9263114E-2,9.0152E4,2.4234E5,1.77226E5,4.03927E5,7.0988517E-3,6.381184E-2,-2.7291771E-2,4.4054635E-2,-3.749509E-3,-8.057228E-2,3.8244523E-2,-1.676778E-2,-2.9537996E-2,-7.839764E-2,4.704805E-3,-3.3026062E-2,-2.2922756E-2,-8.1048496E-2,-3.4643445E-2,-1.34619605E-2,-1.2343609E-3,-5.8529444E-2,2.0046685E-2,-9.730235E-3,5.566297E-2,5.4510552E-3,-2.4497645E-2,7.5382106E-2,1.3527696E-2,-7.105853E-2,-7.077271E-2,-2.0242866E-2,2.711797E-2,-3.7685525E-2,2.2131613E-2,7.295465E-2,-3.0808212E-2,-1.0834518E-1,2.2758426E-2,-4.837497E-2,-4.648612E-3,5.5969257E-2,-7.373726E-2,2.0168204E-2],"split_indices":[1,5,10,12,12,6,0,2,5,2,8,2,2,2,2,5,1,2,0,7,6,2,6,7,2,12,5,0,5,0,5,5,0,2,2,0,2,5,0,8,10,0,5,0,0,7,12,5,5,5,5,5,0,5,5,5,5,0,0,0,0,0,0,0,0,0,0,0,0,0,0,0,0,0,0,0,0,0,0,0,0,0,0,0,0,0,0,0,0,0,0,0,0,0,0,0,0],"split_type":[0,0,0,0,0,0,0,0,0,0,0,0,0,0,0,0,0,0,0,0,0,0,0,0,0,0,0,0,0,0,0,0,0,0,0,0,0,0,0,0,0,0,0,0,0,0,0,0,0,0,0,0,0,0,0,0,0,0,0,0,0,0,0,0,0,0,0,0,0,0,0,0,0,0,0,0,0,0,0,0,0,0,0,0,0,0,0,0,0,0,0,0,0,0,0,0,0],"sum_hessian":[1.1564447E3,4.230889E2,7.333558E2,6.598068E1,3.5710822E2,6.4501666E2,8.833913E1,3.278168E1,3.3198997E1,1.8169037E2,1.7541785E2,5.7252057E2,7.249606E1,4.4547474E1,4.3791653E1,1.405204E1,1.8729643E1,2.7582075E1,5.616923E0,2.0973219E1,1.6071715E2,1.6636092E2,9.0569315E0,4.0328015E2,1.6924043E2,5.2523136E1,1.9972929E1,3.499161E0,4.1048313E1,6.1655827E0,3.7626072E1,1.0949616E1,3.1024234E0,9.705698E0,9.023944E0,3.824457E0,2.3757618E1,1.7208746E1,3.764474E0,1.4309465E2,1.7622503E1,1.4088594E2,2.5474981E1,5.7927165E0,3.2642145E0,3.2110306E2,8.217709E1,6.761305E1,1.0162738E2,2.357006E1,2.8953077E1,1.6147371E1,3.8255582E0,8.892927E0,3.2155388E1,2.8279726E1,9.346346E0,5.3090487E0,5.6405683E0,6.5219474E0,3.1837506E0,4.5480576E0,4.4758863E0,1.8654438E1,5.1031795E0,8.895435E0,8.31331E0,1.2232388E2,2.077076E1,1.4021966E1,3.600536E0,6.5494804E1,7.5391136E1,4.530345E0,2.0944637E1,2.0275412E2,1.1834892E2,5.629307E1,2.5884026E1,6.3696114E1,3.91694E0,9.653749E1,5.089889E0,1.4376468E1,9.193593E0,1.4737623E1,1.4215453E1,1.134329E1,4.8040805E0,3.337944E0,5.554983E0,1.0812091E1,2.1343296E1,1.48704405E1,1.3409285E1,4.328413E0,5.0179334E0],"tree_param":{"num_deleted":"0","num_feature":"13","num_nodes":"97","size_leaf_vector":"1"}},{"base_weights":[1.469131E-2,-2.7632043E-1,1.6561133E-1,-1.8996601E-1,-4.499213E-1,2.2703071E-1,-1.0322826E-2,-5.02542E-2,-3.8012078E-1,-5.794554E-1,-2.3625278E-1,2.6590255E-1,-6.3574485E-2,7.785434E-2,-3.777507E-1,-2.6042458E-1,1.2652308E-1,-5.796322E-1,-1.7610422E-1,-6.377604E-3,-6.872291E-1,1.9717813E-1,-6.464406E-1,2.3766737E-1,6.574466E-1,9.020546E-2,-1.4198712E-1,-1.5228087E-1,2.34108E-1,-6.0531807E-1,-1.17324E-1,-8.289176E-2,-8.3857395E-2,1.6918114E-1,-4.5602154E-2,-8.744386E-1,-3.6634013E-1,-5.3278003E-2,-7.1030205E-1,-5.173226E-2,4.4360656E-1,-7.811209E-1,-1.8960586E-1,7.393822E-2,1.2903185E-2,-3.714493E-1,-8.6440206E-1,2.705225E-1,-2.4625534E-1,8.777569E-1,7.803774E-2,1.2324337E-1,-2.945619E-1,-2.1515211E-1,6.2121067E-2,3.402845E-1,-4.331409E-2,-1.9021073E-1,-8.572135E-1,2.6154274E-1,-3.9116693E-1,6.6947885E-2,-1.2260311E-2,4.630719E-2,6.156481E-3,-1.2790701E-2,-8.021662E-2,-1.3592231E-2,-7.332594E-2,-1.411031E-2,4.707195E-2,-8.221825E-2,-1.2698576E-2,5.9471164E-2,9.116472E-3,-8.158141E-2,-5.2809924E-2,-4.2399302E-2,2.021484E-2,3.2400776E-2,-3.59507E-2,-6.0187347E-2,1.5931554E-2,-9.248338E-2,-3.5324454E-2,1.0131184E-2,2.823778E-2,9.966754E-3,-4.0951166E-2,8.6329356E-2,-1.7761273E-2,-3.487576E-2,4.421513E-2,2.5887022E-2,-2.9248426E-2,-3.666853E-2,6.27971E-3,2.4422416E-3,-3.7756212E-2,3.182051E-2,-2.5557367E-2,-1.5925424E-2,6.401796E-2,1.5501951E-2,-4.6271347E-2,-8.937686E-2,-2.4864716E-2,4.2230118E-2,-3.5969638E-3,-4.866856E-3,-7.250761E-2],"categories":[],"categories_nodes":[],"categories_segments":[],"categories_sizes":[],"default_left":[0,0,0,0,0,0,0,0,0,0,0,0,0,0,0,0,0,0,0,0,0,0,0,0,0,0,0,0,0,0,0,0,0,0,0,0,0,0,0,0,0,0,0,0,0,0,0,0,0,0,0,0,0,0,0,0,0,0,0,0,0,0,0,0,0,0,0,0,0,0,0,0,0,0,0,0,0,0,0,0,0,0,0,0,0,0,0,0,0,0,0,0,0,0,0,0,0,0,0,0,0,0,0,0,0,0,0,0,0,0,0],"id":10,"left_children":[1,3,5,7,9,11,13,15,17,19,21,23,25,27,29,31,33,35,37,39,41,43,45,47,49,-1,51,53,55,57,59,61,-1,63,-1,65,67,69,71,-1,73,75,77,-1,79,81,83,85,87,89,91,93,95,97,-1,99,101,103,105,107,109,-1,-1,-1,-1,-1,-1,-1,-1,-1,-1,-1,-1,-1,-1,-1,-1,-1,-1,-1,-1,-1,-1,-1,-1,-1,-1,-1,-1,-1,-1,-1,-1,-1,-1,-1,-1,-1,-1,-1,-1,-1,-1,-1,-1,-1,-1,-1,-1,-1,-1],"loss_changes":[5.022479E1,5.7693043E0,8.138824E0,6.955821E0,3.4336147E0,6.322235E0,6.373154E0,5.698737E0,4.4178543E0,4.9135723E0,9.084135E0,5.2886314E0,6.386243E0,5.7437115E0,2.1849585E0,9.702616E0,2.577568E0,3.182438E0,3.6587536E0,4.2091436E0,2.9829159E0,3.3725278E0,1.2443018E0,7.395445E0,4.0879345E0,0E0,2.6032176E0,3.9509068E0,2.8112082E0,1.935986E0,2.0727158E0,3.8952072E0,0E0,2.9573042E0,0E0,1.9169159E0,3.5237951E0,3.8075037E0,1.6666746E0,0E0,7.6398337E-1,9.4545364E-1,1.9341271E0,0E0,4.0189652E0,3.0406477E0,1.1932774E0,5.081606E0,3.0021951E0,5.4422264E0,2.6970937E0,2.4559948E0,2.5145497E0,3.8927743E0,0E0,2.7347493E0,3.7283604E0,1.4336467E0,1.3870726E0,7.231055E-1,1.8890926E0,0E0,0E0,0E0,0E0,0E0,0E0,0E0,0E0,0E0,0E0,0E0,0E0,0E0,0E0,0E0,0E0,0E0,0E0,0E0,0E0,0E0,0E0,0E0,0E0,0E0,0E0,0E0,0E0,0E0,0E0,0E0,0E0,0E0,0E0,0E0,0E0,0E0,0E0,0E0,0E0,0E0,0E0,0E0,0E0,0E0,0E0,0E0,0E0,0E0,0E0],"parents":[2147483647,0,0,1,1,2,2,3,3,4,4,5,5,6,6,7,7,8,8,9,9,10,10,11,11,12,12,13,13,14,14,15,15,16,16,17,17,18,18,19,19,20,20,21,21,22,22,23,23,24,24,26,26,27,27,28,28,29,29,30,30,31,31,33,33,35,35,36,36,37,37,38,38,40,40,41,41,42,42,44,44,45,45,46,46,47,47,48,48,49,49,50,50,51,51,52,52,53,53,55,55,56,56,57,57,58,58,59,59,60,60],"right_children":[2,4,6,8,10,12,14,16,18,20,22,24,26,28,30,32,34,36,38,40,42,44,46,48,50,-1,52,54,56,58,60,62,-1,64,-1,66,68,70,72,-1,74,76,78,-1,80,82,84,86,88,90,92,94,96,98,-1,100,102,104,106,108,110,-1,-1,-1,-1,-1,-1,-1,-1,-1,-1,-1,-1,-1,-1,-1,-1,-1,-1,-1,-1,-1,-1,-1,-1,-1,-1,-1,-1,-1,-1,-1,-1,-1,-1,-1,-1,-1,-1,-1,-1,-1,-1,-1,-1,-1,-1,-1,-1,-1,-1],"split_conditions":[7.8989E4,1E0,2E0,2.83289E5,5.9363E4,1E0,3.7739E5,4.6E1,3.63199E5,1.06807E5,2E0,4.23882E5,6.8991E4,5E0,1.27708E5,1E0,2.68695E5,4E0,7E1,7.2029E4,3E0,6.2825E4,2.17364E5,7.9E1,1.4193E5,9.020546E-2,1E0,3.60511E5,4E0,1E0,2E0,2.8213E4,-8.3857395E-2,5.1E1,-4.5602154E-2,3.3024E4,4E0,7.0405E4,7.7E1,-5.173226E-2,4.6E1,1E0,3.28724E5,7.393822E-2,3.1078E5,3E0,3.35703E5,2E0,1E0,1E0,1.5868E5,4E0,4E0,1.3271E5,6.2121067E-2,4E0,7.7E1,5E1,3E0,5E0,1.56767E5,6.6947885E-2,-1.2260311E-2,4.630719E-2,6.156481E-3,-1.2790701E-2,-8.021662E-2,-1.3592231E-2,-7.332594E-2,-1.411031E-2,4.707195E-2,-8.221825E-2,-1.2698576E-2,5.9471164E-2,9.116472E-3,-8.158141E-2,-5.2809924E-2,-4.2399302E-2,2.021484E-2,3.2400776E-2,-3.59507E-2,-6.0187347E-2,1.5931554E-2,-9.248338E-2,-3.5324454E-2,1.0131184E-2,2.823778E-2,9.966754E-3,-4.0951166E-2,8.6329356E-2,-1.7761273E-2,-3.487576E-2,4.421513E-2,2.5887022E-2,-2.9248426E-2,-3.666853E-2,6.27971E-3,2.4422416E-3,-3.7756212E-2,3.182051E-2,-2.5557367E-2,-1.5925424E-2,6.401796E-2,1.5501951E-2,-4.6271347E-2,-8.937686E-2,-2.4864716E-2,4.2230118E-2,-3.5969638E-3,-4.866856E-3,-7.250761E-2],"split_indices":[3,6,6,5,3,10,5,2,5,5,7,5,5,1,3,9,5,1,2,5,7,3,5,2,3,0,7,5,12,7,7,3,0,2,0,3,12,3,2,0,2,12,5,0,5,7,5,12,7,8,3,12,12,3,0,6,2,2,7,1,3,0,0,0,0,0,0,0,0,0,0,0,0,0,0,0,0,0,0,0,0,0,0,0,0,0,0,0,0,0,0,0,0,0,0,0,0,0,0,0,0,0,0,0,0,0,0,0,0,0,0],"split_type":[0,0,0,0,0,0,0,0,0,0,0,0,0,0,0,0,0,0,0,0,0,0,0,0,0,0,0,0,0,0,0,0,0,0,0,0,0,0,0,0,0,0,0,0,0,0,0,0,0,0,0,0,0,0,0,0,0,0,0,0,0,0,0,0,0,0,0,0,0,0,0,0,0,0,0,0,0,0,0,0,0,0,0,0,0,0,0,0,0,0,0,0,0,0,0,0,0,0,0,0,0,0,0,0,0,0,0,0,0,0,0],"sum_hessian":[1.1415228E3,3.8954712E2,7.519757E2,2.615422E2,1.280049E2,5.571735E2,1.9480215E2,1.5149734E2,1.1004488E2,7.862654E1,4.9378357E1,4.9151294E2,6.56606E1,1.57736E2,3.706616E1,6.8995476E1,8.250186E1,5.47059E1,5.533898E1,1.2613657E1,6.601288E1,2.4261446E1,2.511691E1,4.5995172E2,3.156122E1,3.2290554E0,6.2431545E1,6.37979E1,9.3938095E1,1.907426E1,1.7991898E1,5.7208496E1,1.1786984E1,7.8454285E1,4.047576E0,2.1663498E1,3.30424E1,4.588788E1,9.451103E0,5.025661E0,7.587996E0,5.5055313E1,1.0957566E1,4.0938473E0,2.0167599E1,1.2301238E1,1.2815673E1,4.3112238E2,2.8829348E1,2.2493526E1,9.067695E0,2.2869051E1,3.9562492E1,6.0472775E1,3.3251252E0,6.777303E1,2.6165058E1,7.866273E0,1.1207989E1,7.567306E0,1.0424591E1,3.291402E0,5.391709E1,1.3447018E1,6.500726E1,3.6388516E0,1.8024645E1,2.5313938E1,7.728462E0,3.9110046E1,6.777834E0,5.4508705E0,4.0002327E0,3.31671E0,4.271286E0,1.6023497E1,3.903182E1,6.08008E0,4.8774867E0,1.0979128E1,9.188471E0,7.185874E0,5.1153636E0,6.5583673E0,6.2573056E0,1.5797572E2,2.7314667E2,1.2253621E1,1.6575726E1,1.9028362E1,3.4651651E0,4.3926153E0,4.6750793E0,1.6460941E1,6.40811E0,2.7333025E1,1.2229469E1,3.1355862E1,2.9116913E1,6.2707596E1,5.0654373E0,2.2731794E1,3.433264E0,4.2062774E0,3.6599956E0,6.8865047E0,4.321484E0,3.6625397E0,3.904766E0,7.033081E0,3.39151E0],"tree_param":{"num_deleted":"0","num_feature":"13","num_nodes":"111","size_leaf_vector":"1"}},{"base_weights":[9.994876E-3,-2.600645E-1,1.7948842E-1,-4.19736E-1,-1.3590486E-1,2.1431272E-1,-8.9734584E-2,1.3545849E-3,-4.8482475E-1,-9.9555984E-2,-5.8708006E-1,2.4816439E-1,-9.321717E-2,1.0056495E-2,-5.0563234E-1,-4.0990078E-1,3.451312E-1,-1.0184648E0,-3.8860947E-1,5.0599575E-2,-2.2255734E-1,-7.9910415E-1,1.9922627E-2,2.69339E-1,-2.2525842E-1,-1.9506304E-1,3.8533244E-1,-1.6960151E-1,3.6065662E-1,-8.240676E-1,2.1277888E-2,6.984015E-3,-6.550474E-2,7.624845E-2,-1.3832182E-1,-1.0025366E-2,-1.1364331E0,-2.4786226E-1,-5.8511376E-1,4.5667535E-1,-2.369903E-2,-7.8095354E-2,-1.7846026E-1,-1.8369332E-2,-1.028253E0,-2.2224925E-2,2.9595158E-1,-1.3117158E-2,-5.4562926E-1,-6.778805E-1,-7.8472674E-2,7.890371E-1,-3.9628252E-2,4.6276858E-1,-3.543975E-1,-3.1083372E-1,7.0196235E-1,-4.437402E-1,-1.0141354E-1,4.443117E-2,-4.662098E-2,-6.909447E-2,-1.1023318E-1,-6.598705E-2,-1.5266958E-2,-8.6199895E-2,-3.7389096E-2,-1.1014153E-2,7.469036E-2,-3.5352692E-2,6.3460404E-3,6.550184E-2,-1.7547337E-2,-4.00633E-2,-9.420267E-2,1.79863E-2,-5.4815505E-2,2.6119862E-2,-5.219998E-3,-5.4051653E-2,1.64319E-2,-1.22538125E-2,-6.982489E-2,1.3133564E-2,-8.599605E-2,6.433511E-2,-1.4859439E-2,2.6775675E-2,8.396249E-2,5.848389E-2,-8.037888E-3,2.2865495E-2,-3.8747326E-2,2.2738645E-2,-6.124589E-2,-1.4024751E-2,8.313622E-2,-6.887854E-2,6.170322E-3],"categories":[],"categories_nodes":[],"categories_segments":[],"categories_sizes":[],"default_left":[0,0,0,0,0,0,0,0,0,0,0,0,0,0,0,0,0,0,0,0,0,0,0,0,0,0,0,0,0,0,0,0,0,0,0,0,0,0,0,0,0,0,0,0,0,0,0,0,0,0,0,0,0,0,0,0,0,0,0,0,0,0,0,0,0,0,0,0,0,0,0,0,0,0,0,0,0,0,0,0,0,0,0,0,0,0,0,0,0,0,0,0,0,0,0,0,0,0,0],"id":11,"left_children":[1,3,5,7,9,11,13,15,17,19,21,23,25,27,29,31,33,35,37,39,41,43,-1,45,47,49,51,53,55,57,-1,-1,-1,-1,59,-1,61,63,65,67,69,-1,71,-1,73,75,77,79,81,83,85,87,-1,89,91,93,95,97,-1,-1,-1,-1,-1,-1,-1,-1,-1,-1,-1,-1,-1,-1,-1,-1,-1,-1,-1,-1,-1,-1,-1,-1,-1,-1,-1,-1,-1,-1,-1,-1,-1,-1,-1,-1,-1,-1,-1,-1,-1],"loss_changes":[5.23317E1,8.683071E0,6.6045036E0,5.2733383E0,4.0331674E0,6.5008698E0,3.3732014E0,3.9236803E0,8.1593895E0,4.2979126E0,3.4604445E0,5.682522E0,3.117822E0,4.2454815E0,4.082569E0,2.6408505E0,4.5743628E0,2.474392E0,3.8041058E0,3.18861E0,4.071953E0,1.7100754E0,0E0,4.1752777E0,1.6616144E0,2.881731E0,4.405158E0,5.3762846E0,5.449815E0,1.3564763E0,0E0,0E0,0E0,0E0,3.1887124E0,0E0,2.4672318E-1,2.6370435E0,2.9087582E0,4.7605734E0,3.9121952E0,0E0,5.1504784E0,0E0,2.2501945E-1,7.6665006E0,5.4540787E0,2.4257174E0,1.1191623E0,3.5234594E0,4.2328124E0,6.1065483E-1,0E0,1.6631415E0,3.0570402E0,2.4867818E0,4.7505736E0,1.7316704E0,0E0,0E0,0E0,0E0,0E0,0E0,0E0,0E0,0E0,0E0,0E0,0E0,0E0,0E0,0E0,0E0,0E0,0E0,0E0,0E0,0E0,0E0,0E0,0E0,0E0,0E0,0E0,0E0,0E0,0E0,0E0,0E0,0E0,0E0,0E0,0E0,0E0,0E0,0E0,0E0,0E0],"parents":[2147483647,0,0,1,1,2,2,3,3,4,4,5,5,6,6,7,7,8,8,9,9,10,10,11,11,12,12,13,13,14,14,15,15,16,16,17,17,18,18,19,19,20,20,21,21,23,23,24,24,25,25,26,26,27,27,28,28,29,29,34,34,36,36,37,37,38,38,39,39,40,40,42,42,44,44,45,45,46,46,47,47,48,48,49,49,50,50,51,51,53,53,54,54,55,55,56,56,57,57],"right_children":[2,4,6,8,10,12,14,16,18,20,22,24,26,28,30,32,34,36,38,40,42,44,-1,46,48,50,52,54,56,58,-1,-1,-1,-1,60,-1,62,64,66,68,70,-1,72,-1,74,76,78,80,82,84,86,88,-1,90,92,94,96,98,-1,-1,-1,-1,-1,-1,-1,-1,-1,-1,-1,-1,-1,-1,-1,-1,-1,-1,-1,-1,-1,-1,-1,-1,-1,-1,-1,-1,-1,-1,-1,-1,-1,-1,-1,-1,-1,-1,-1,-1,-1],"split_conditions":[8.7147E4,5.2101E4,3E0,9.7721E4,1E0,7.6E1,3.72911E5,7.3612E4,2.9E1,2.27524E5,3.76019E5,4.34037E5,3E0,5.8E1,4.23882E5,3E0,4E1,2.8213E4,6E1,5.8022E4,2.37446E5,6.3435E4,1.9922627E-2,2.3E1,1.35168E5,1.04369E5,3.17143E5,2E0,3E0,5.9E1,2.1277888E-2,6.984015E-3,-6.550474E-2,7.624845E-2,8.1611E4,-1.0025366E-2,2.4E1,2.6228E4,2E0,1.44264E5,6.1839E4,-7.8095354E-2,2.43824E5,-1.8369332E-2,3.2E1,4E0,1E0,9.8624E4,2E0,9.1508E4,1.14418E5,1.56355E5,-3.9628252E-2,3.0612E5,1.0499E5,7.2E1,1.11767E5,3E0,-1.0141354E-1,4.443117E-2,-4.662098E-2,-6.909447E-2,-1.1023318E-1,-6.598705E-2,-1.5266958E-2,-8.6199895E-2,-3.7389096E-2,-1.1014153E-2,7.469036E-2,-3.5352692E-2,6.3460404E-3,6.550184E-2,-1.7547337E-2,-4.00633E-2,-9.420267E-2,1.79863E-2,-5.4815505E-2,2.6119862E-2,-5.219998E-3,-5.4051653E-2,1.64319E-2,-1.22538125E-2,-6.982489E-2,1.3133564E-2,-8.599605E-2,6.433511E-2,-1.4859439E-2,2.6775675E-2,8.396249E-2,5.848389E-2,-8.037888E-3,2.2865495E-2,-3.8747326E-2,2.2738645E-2,-6.124589E-2,-1.4024751E-2,8.313622E-2,-6.887854E-2,6.170322E-3],"split_indices":[3,3,6,5,11,2,5,5,2,5,5,5,7,2,5,12,2,3,2,3,5,3,0,2,3,3,5,1,1,2,0,0,0,0,5,0,2,3,1,5,3,0,5,0,2,12,11,3,7,3,3,5,0,5,3,2,3,12,0,0,0,0,0,0,0,0,0,0,0,0,0,0,0,0,0,0,0,0,0,0,0,0,0,0,0,0,0,0,0,0,0,0,0,0,0,0,0,0,0],"split_type":[0,0,0,0,0,0,0,0,0,0,0,0,0,0,0,0,0,0,0,0,0,0,0,0,0,0,0,0,0,0,0,0,0,0,0,0,0,0,0,0,0,0,0,0,0,0,0,0,0,0,0,0,0,0,0,0,0,0,0,0,0,0,0,0,0,0,0,0,0,0,0,0,0,0,0,0,0,0,0,0,0,0,0,0,0,0,0,0,0,0,0,0,0,0,0,0,0,0,0],"sum_hessian":[1.1412598E3,4.3986874E2,7.0139105E2,1.9137566E2,2.4849309E2,6.2123724E2,8.0153786E1,2.5752096E1,1.6562357E2,2.3109555E2,1.7397528E1,5.598088E2,6.1428474E1,6.54302E1,1.4723591E1,1.1637711E1,1.4114385E1,2.3836056E1,1.417875E2,1.0432636E2,1.2676919E2,1.391355E1,3.4839785E0,5.36255E2,2.3553802E1,5.113765E1,1.0290828E1,4.3602978E1,2.1827217E1,1.037424E1,4.349351E0,5.606791E0,6.03092E0,5.8217235E0,8.292661E0,3.0215979E0,2.0814457E1,8.3932076E1,5.7855434E1,1.5339966E1,8.89864E1,5.8391275E0,1.2093006E2,4.5665827E0,9.346968E0,4.4866653E1,4.9138834E2,1.4796734E1,8.75707E0,9.010337E0,4.212731E1,7.1276093E0,3.163218E0,9.520321E0,3.4082657E1,7.385718E0,1.44415E1,6.6624336E0,3.7118068E0,3.140745E0,5.151916E0,1.1923507E1,8.89095E0,6.338217E0,7.759386E1,9.592517E0,4.8262917E1,7.146169E0,8.193796E0,1.693845E1,7.204794E1,4.0129538E0,1.1691711E2,3.0224082E0,6.324559E0,3.316768E1,1.1698975E1,4.5316077E2,3.822757E1,3.1510236E0,1.164571E1,4.6488748E0,4.1081953E0,3.0752754E0,5.935062E0,3.860964E0,3.8266346E1,3.4300072E0,3.6976023E0,6.2469044E0,3.2734168E0,5.548149E0,2.8534508E1,3.3616545E0,4.024063E0,4.1433835E0,1.0298117E1,3.3366466E0,3.3257868E0],"tree_param":{"num_deleted":"0","num_feature":"13","num_nodes":"99","size_leaf_vector":"1"}},{"base_weights":[-3.275158E-2,-2.5560823E-1,1.5079504E-1,-4.1463256E-1,-1.7300911E-1,1.942842E-1,-1.92252E-1,-1.7865224E-1,-4.574004E-1,-1.2961064E-1,-5.021271E-1,7.186543E-2,3.218961E-1,-2.9074734E-2,-8.516799E-1,3.6011237E-1,-4.7170997E-1,-6.72582E-1,-3.2898733E-1,-4.2756474E-1,-8.886101E-2,1.7045427E-2,-5.705377E-1,2.4543281E-1,-2.1696849E-2,3.5084766E-1,-7.4304634E-1,4.0047815E-1,-2.5973544E-1,-1.0584155E0,-8.0399355E-3,8.361946E-2,-9.121489E-2,-8.117996E-2,-1.5606365E-1,-3.465962E-1,-8.434452E-1,-9.3717E-2,-4.942968E-1,-8.7627836E-2,-2.2908561E-1,-2.4939846E-1,3.8493273E-3,-8.659382E-1,-2.950589E-1,3.039227E-1,-4.449078E-2,3.0776247E-2,-3.2591194E-1,1.4297402E-1,4.7448274E-1,-1.05974875E-1,-1.7384654E-3,9.127713E-2,1.8986483E-1,-6.616327E-1,3.2632828E-2,-1.0648905E-1,-5.66063E-2,-3.1258922E-2,1.6911892E-2,-5.9620894E-2,1.9108165E-2,-7.031664E-2,1.1503994E-2,-7.470782E-2,-3.0316554E-2,-1.8785587E-2,4.894115E-2,-3.155852E-2,-6.1101872E-2,5.836112E-3,-5.075542E-2,-6.2698512E-3,-3.4321748E-2,7.376654E-3,-1.4376842E-2,-4.4864725E-2,-8.3059244E-2,4.767068E-2,-4.1822203E-2,8.717096E-2,1.9655453E-2,3.8510032E-2,-2.445361E-4,-4.0595792E-2,3.3722743E-2,8.577623E-2,7.502725E-3,4.4548783E-2,1.6435163E-2,-1.3139666E-2,4.2264465E-2,-1.2796013E-4,-6.693383E-2,-1.3118933E-2,4.210418E-2],"categories":[],"categories_nodes":[],"categories_segments":[],"categories_sizes":[],"default_left":[0,0,0,0,0,0,0,0,0,0,0,0,0,0,0,0,0,0,0,0,0,0,0,0,0,0,0,0,0,0,0,0,0,0,0,0,0,0,0,0,0,0,0,0,0,0,0,0,0,0,0,0,0,0,0,0,0,0,0,0,0,0,0,0,0,0,0,0,0,0,0,0,0,0,0,0,0,0,0,0,0,0,0,0,0,0,0,0,0,0,0,0,0,0,0,0,0],"id":12,"left_children":[1,3,5,7,9,11,13,15,17,19,21,23,25,27,29,31,33,35,37,39,41,-1,43,45,47,49,51,53,55,57,-1,-1,59,-1,61,63,65,67,69,-1,71,73,75,77,79,81,-1,83,85,87,89,-1,-1,-1,91,93,95,-1,-1,-1,-1,-1,-1,-1,-1,-1,-1,-1,-1,-1,-1,-1,-1,-1,-1,-1,-1,-1,-1,-1,-1,-1,-1,-1,-1,-1,-1,-1,-1,-1,-1,-1,-1,-1,-1,-1,-1],"loss_changes":[4.687267E1,6.7254677E0,9.413588E0,1.696394E0,4.82397E0,8.69821E0,7.6380424E0,4.6969423E0,3.8824139E0,3.6501608E0,2.0556183E0,4.6533556E0,8.679304E0,5.8628287E0,2.0818977E0,3.394276E0,3.0990553E0,2.7458382E0,3.6470966E0,4.5581393E0,3.9968789E0,0E0,2.702568E0,4.8728504E0,2.9933774E0,6.7814064E0,3.1376987E0,3.0116267E0,4.5363135E0,1.0526466E-1,0E0,0E0,7.4893427E-1,0E0,3.2494116E0,5.466732E0,1.1195965E0,4.1676493E0,1.1926508E0,0E0,3.6255748E0,2.9862251E0,2.7929347E0,3.1277943E-1,4.435402E0,4.0399723E0,0E0,2.445414E0,3.9561887E0,4.5079126E0,3.5797234E0,0E0,0E0,0E0,2.1619682E0,1.8734574E0,2.3377364E0,0E0,0E0,0E0,0E0,0E0,0E0,0E0,0E0,0E0,0E0,0E0,0E0,0E0,0E0,0E0,0E0,0E0,0E0,0E0,0E0,0E0,0E0,0E0,0E0,0E0,0E0,0E0,0E0,0E0,0E0,0E0,0E0,0E0,0E0,0E0,0E0,0E0,0E0,0E0,0E0],"parents":[2147483647,0,0,1,1,2,2,3,3,4,4,5,5,6,6,7,7,8,8,9,9,10,10,11,11,12,12,13,13,14,14,15,15,16,16,17,17,18,18,19,19,20,20,22,22,23,23,24,24,25,25,26,26,27,27,28,28,29,29,32,32,34,34,35,35,36,36,37,37,38,38,40,40,41,41,42,42,43,43,44,44,45,45,47,47,48,48,49,49,50,50,54,54,55,55,56,56],"right_children":[2,4,6,8,10,12,14,16,18,20,22,24,26,28,30,32,34,36,38,40,42,-1,44,46,48,50,52,54,56,58,-1,-1,60,-1,62,64,66,68,70,-1,72,74,76,78,80,82,-1,84,86,88,90,-1,-1,-1,92,94,96,-1,-1,-1,-1,-1,-1,-1,-1,-1,-1,-1,-1,-1,-1,-1,-1,-1,-1,-1,-1,-1,-1,-1,-1,-1,-1,-1,-1,-1,-1,-1,-1,-1,-1,-1,-1,-1,-1,-1,-1],"split_conditions":[6.63E2,5.58E2,1E0,5.09E2,3E0,7.59E2,1E0,3E0,5.27E2,2.5E1,5.65E2,1E0,4E0,1E0,2E0,5.03E2,1E0,3E0,5.41E2,5.81E2,3E0,1.7045427E-2,6.09E2,7.55E2,1E0,3E0,5.2E1,7.02E2,4.2E1,2E0,-8.0399355E-3,8.361946E-2,2E0,-8.117996E-2,3.9E1,2E0,2E0,1E0,4E0,-8.7627836E-2,2.2E1,5.6E1,6.5E1,2E0,6.19E2,2.2E1,-4.449078E-2,6.68E2,7.43E2,7.62E2,2E0,-1.05974875E-1,-1.7384654E-3,9.127713E-2,7.75E2,1E0,3E0,-1.0648905E-1,-5.66063E-2,-3.1258922E-2,1.6911892E-2,-5.9620894E-2,1.9108165E-2,-7.031664E-2,1.1503994E-2,-7.470782E-2,-3.0316554E-2,-1.8785587E-2,4.894115E-2,-3.155852E-2,-6.1101872E-2,5.836112E-3,-5.075542E-2,-6.2698512E-3,-3.4321748E-2,7.376654E-3,-1.4376842E-2,-4.4864725E-2,-8.3059244E-2,4.767068E-2,-4.1822203E-2,8.717096E-2,1.9655453E-2,3.8510032E-2,-2.445361E-4,-4.0595792E-2,3.3722743E-2,8.577623E-2,7.502725E-3,4.4548783E-2,1.6435163E-2,-1.3139666E-2,4.2264465E-2,-1.2796013E-4,-6.693383E-2,-1.3118933E-2,4.210418E-2],"split_indices":[4,4,10,4,6,4,9,1,4,2,4,7,6,7,6,4,7,1,4,4,1,0,4,4,9,1,2,4,2,7,0,0,12,0,2,7,6,9,12,0,2,2,2,7,4,2,0,4,4,4,6,0,0,0,4,12,7,0,0,0,0,0,0,0,0,0,0,0,0,0,0,0,0,0,0,0,0,0,0,0,0,0,0,0,0,0,0,0,0,0,0,0,0,0,0,0,0],"split_type":[0,0,0,0,0,0,0,0,0,0,0,0,0,0,0,0,0,0,0,0,0,0,0,0,0,0,0,0,0,0,0,0,0,0,0,0,0,0,0,0,0,0,0,0,0,0,0,0,0,0,0,0,0,0,0,0,0,0,0,0,0,0,0,0,0,0,0,0,0,0,0,0,0,0,0,0,0,0,0,0,0,0,0,0,0,0,0,0,0,0,0,0,0,0,0,0,0],"sum_hessian":[1.1439603E3,5.164771E2,6.274832E2,1.7518382E2,3.412933E2,5.5726996E2,7.0213234E1,2.7672482E1,1.4751135E2,3.027638E2,3.852951E1,2.8522003E2,2.7204996E2,5.7122265E1,1.3090971E1,9.668626E0,1.8003855E1,5.3546295E1,9.396506E1,3.5283623E1,2.6748016E2,3.1791086E0,3.5350403E1,9.932992E1,1.8589012E2,2.6550253E2,6.547415E0,1.9699753E1,3.7422512E1,9.944971E0,3.1460001E0,3.3171468E0,6.3514795E0,5.803924E0,1.2199931E1,1.9455719E1,3.4090576E1,3.9423706E1,5.4541348E1,7.0488973E0,2.8234728E1,9.7301895E1,1.7017827E2,1.6024097E1,1.9326305E1,9.315341E1,6.1765094E0,1.5931006E2,2.6580053E1,9.982252E1,1.6568001E2,3.1615682E0,3.3858466E0,3.384168E0,1.6315584E1,1.5227446E1,2.2195066E1,4.0234923E0,5.9214783E0,3.045696E0,3.3057835E0,4.53972E0,7.6602106E0,8.948791E0,1.05069275E1,2.7690695E1,6.399882E0,3.3408787E1,6.014919E0,4.159738E1,1.2943963E1,1.664921E1,1.1585517E1,5.0579666E1,4.672223E1,1.152155E2,5.4962765E1,7.3185396E0,8.705558E0,3.60502E0,1.5721285E1,5.2051735E0,8.7948235E1,1.0202434E1,1.4910764E2,2.16443E1,4.935752E0,3.9729934E0,9.5849525E1,1.2602366E2,3.9656353E1,8.224741E0,8.090843E0,3.4033606E0,1.1824085E1,1.6350702E1,5.8443646E0],"tree_param":{"num_deleted":"0","num_feature":"13","num_nodes":"97","size_leaf_vector":"1"}},{"base_weights":[-3.184183E-3,2.6331302E-2,-3.637555E-1,7.7003404E-2,-1.203008E-1,-1.8725961E-1,-6.5400124E-1,1.4364178E-1,-5.7121105E-2,-6.957561E-2,-4.6760896E-1,3.157432E-2,-2.52896E-1,-9.703327E-2,-3.3878747E-1,4.5237426E-2,2.3654152E-1,4.296298E-2,-2.5905514E-1,-2.5280952E-1,-4.345375E-3,-2.6780263E-1,-9.373422E-1,-5.181927E-1,-9.854583E-3,-5.85284E-1,4.9131587E-2,7.77959E-2,-5.782299E-1,5.3572017E-3,3.0105844E-1,-1.20179154E-1,1.9377357E-1,-5.1681703E-1,-1.1643239E-1,1.06876746E-1,-3.6759073E-1,4.432968E-2,-2.95249E-1,-6.286308E-2,-1.5142374E-1,-3.1266306E-2,-9.5576406E-2,-8.376458E-2,-2.3452346E-1,1.0360597E-1,-2.3409486E-1,-7.893002E-2,-2.745493E-1,1.3519449E-2,-9.982424E-3,-5.9114072E-2,-2.4359146E-2,3.2634266E-2,-2.4948465E-3,2.5561456E-2,-5.620891E-2,-3.4047946E-2,7.2562154E-3,5.1280456E-3,3.8163092E-2,-2.8175225E-2,-9.975458E-2,-2.275886E-2,1.7028084E-2,-3.4786817E-2,3.3709176E-2,-8.608678E-2,-2.326451E-2,-5.9045497E-3,1.2985776E-2,-3.487351E-2,1.5076718E-2,4.578683E-2,-2.8168907E-2,-2.7535526E-2,1.0035078E-2,8.419717E-3,-4.6263482E-2,-3.416584E-2,7.154034E-4],"categories":[],"categories_nodes":[],"categories_segments":[],"categories_sizes":[],"default_left":[0,0,0,0,0,0,0,0,0,0,0,0,0,0,0,0,0,0,0,0,0,0,0,0,0,0,0,0,0,0,0,0,0,0,0,0,0,0,0,0,0,0,0,0,0,0,0,0,0,0,0,0,0,0,0,0,0,0,0,0,0,0,0,0,0,0,0,0,0,0,0,0,0,0,0,0,0,0,0,0,0],"id":13,"left_children":[1,3,5,7,9,11,13,15,17,19,21,-1,23,-1,25,27,29,31,33,35,37,39,41,43,45,47,-1,49,51,53,55,57,59,61,63,65,67,69,71,-1,73,-1,-1,-1,75,-1,77,-1,79,-1,-1,-1,-1,-1,-1,-1,-1,-1,-1,-1,-1,-1,-1,-1,-1,-1,-1,-1,-1,-1,-1,-1,-1,-1,-1,-1,-1,-1,-1,-1,-1],"loss_changes":[1.2187785E1,7.875245E0,4.3163757E0,7.0456767E0,4.7642393E0,2.2115011E0,5.2910833E0,4.8007107E0,5.3076043E0,2.8525672E0,2.9892526E0,0E0,3.2375615E0,0E0,5.546321E0,5.2582216E0,4.032854E0,4.3554792E0,3.13771E0,2.6263494E0,2.5206316E0,1.4255276E0,9.259262E-1,3.358769E0,8.281618E0,1.9808583E0,0E0,4.5464993E0,3.4090424E-1,8.958975E-1,4.142269E0,5.526068E0,3.3443708E0,3.2503052E0,3.230926E0,2.8977628E0,2.283595E0,2.1387594E0,1.8182385E0,0E0,3.4201856E0,0E0,0E0,0E0,7.113772E-1,0E0,2.8774433E0,0E0,5.037568E-1,0E0,0E0,0E0,0E0,0E0,0E0,0E0,0E0,0E0,0E0,0E0,0E0,0E0,0E0,0E0,0E0,0E0,0E0,0E0,0E0,0E0,0E0,0E0,0E0,0E0,0E0,0E0,0E0,0E0,0E0,0E0,0E0],"parents":[2147483647,0,0,1,1,2,2,3,3,4,4,5,5,6,6,7,7,8,8,9,9,10,10,12,12,14,14,15,15,16,16,17,17,18,18,19,19,20,20,21,21,22,22,23,23,24,24,25,25,27,27,28,28,29,29,30,30,31,31,32,32,33,33,34,34,35,35,36,36,37,37,38,38,40,40,44,44,46,46,48,48],"right_children":[2,4,6,8,10,12,14,16,18,20,22,-1,24,-1,26,28,30,32,34,36,38,40,42,44,46,48,-1,50,52,54,56,58,60,62,64,66,68,70,72,-1,74,-1,-1,-1,76,-1,78,-1,80,-1,-1,-1,-1,-1,-1,-1,-1,-1,-1,-1,-1,-1,-1,-1,-1,-1,-1,-1,-1,-1,-1,-1,-1,-1,-1,-1,-1,-1,-1,-1,-1],"split_conditions":[1E0,4E0,1E0,1E0,1E0,2.3E1,1E0,2E0,6.1E1,3.5E1,1E0,3.157432E-2,5E1,-9.703327E-2,4E0,2E0,3.3E1,1E0,6.8E1,2.2E1,3E0,2.4E1,4.6E1,1E0,5.4E1,4E0,4.9131587E-2,6.1E1,1E0,1E0,2E0,5E0,4.9E1,1E0,3E0,3E0,1E0,1E0,7.6E1,-6.286308E-2,3.5E1,-3.1266306E-2,-9.5576406E-2,-8.376458E-2,4E0,1.0360597E-1,2E0,-7.893002E-2,5.5E1,1.3519449E-2,-9.982424E-3,-5.9114072E-2,-2.4359146E-2,3.2634266E-2,-2.4948465E-3,2.5561456E-2,-5.620891E-2,-3.4047946E-2,7.2562154E-3,5.1280456E-3,3.8163092E-2,-2.8175225E-2,-9.975458E-2,-2.275886E-2,1.7028084E-2,-3.4786817E-2,3.3709176E-2,-8.608678E-2,-2.326451E-2,-5.9045497E-3,1.2985776E-2,-3.487351E-2,1.5076718E-2,4.578683E-2,-2.8168907E-2,-2.7535526E-2,1.0035078E-2,8.419717E-3,-4.6263482E-2,-3.416584E-2,7.154034E-4],"split_indices":[11,12,6,6,10,2,7,12,2,2,6,0,2,0,12,8,2,0,2,2,6,2,2,7,2,1,0,2,0,1,0,1,2,9,6,1,1,0,2,0,2,0,0,0,12,0,7,0,2,0,0,0,0,0,0,0,0,0,0,0,0,0,0,0,0,0,0,0,0,0,0,0,0,0,0,0,0,0,0,0,0],"split_type":[0,0,0,0,0,0,0,0,0,0,0,0,0,0,0,0,0,0,0,0,0,0,0,0,0,0,0,0,0,0,0,0,0,0,0,0,0,0,0,0,0,0,0,0,0,0,0,0,0,0,0,0,0,0,0,0,0,0,0,0,0,0,0,0,0,0,0,0,0,0,0,0,0,0,0,0,0,0,0,0,0],"sum_hessian":[1.1433064E3,1.0576561E3,8.565018E1,7.8637946E2,2.712767E2,5.4285076E1,3.1365099E1,5.2531244E2,2.6106702E2,2.3775267E2,3.3524025E1,4.99407E0,4.9291004E1,1.0283397E1,2.1081703E1,2.5582059E2,2.6949185E2,1.7507985E2,8.5987175E1,6.1663155E1,1.7608952E2,2.4621225E1,8.902799E0,2.3025236E1,2.626577E1,1.7055687E1,4.0260153E0,2.4395604E2,1.1864556E1,5.9034798E1,2.1045706E2,8.419907E1,9.088078E1,2.9695274E1,5.6291897E1,1.4933954E1,4.67292E1,1.5157504E2,2.4514477E1,3.461701E0,2.1159525E1,3.6565847E0,5.246214E0,7.0989833E0,1.5926252E1,3.1513896E0,2.311438E1,6.493554E0,1.0562134E1,1.6833813E2,7.5617905E1,6.405135E0,5.459421E0,4.0670776E0,5.496772E1,2.0732553E2,3.1315353E0,3.3974957E1,5.0224117E1,6.318312E1,2.769766E1,2.5441166E1,4.2541094E0,3.7360573E1,1.8931326E1,5.344782E0,9.589172E0,3.2966282E0,4.343257E1,7.592842E1,7.564662E1,1.9067999E1,5.4464774E0,4.191487E0,1.6968037E1,1.224066E1,3.6855927E0,1.1988898E1,1.1125482E1,6.5380645E0,4.0240693E0],"tree_param":{"num_deleted":"0","num_feature":"13","num_nodes":"81","size_leaf_vector":"1"}},{"base_weights":[1.3462907E-2,-2.6529732E-1,1.508199E-1,-6.035281E-1,-1.1616374E-1,-1.3973992E-1,2.5292936E-1,-8.395603E-1,-5.071032E-1,-6.404958E-2,-8.145518E-1,-7.929984E-2,-7.367895E-1,3.1535342E-1,-2.3284219E-1,-2.2102717E-2,-9.376271E-1,-3.4618858E-1,-7.2308356E-1,-2.7629644E-1,2.4727575E-2,-2.2904072E-2,-8.091134E-2,-2.5511882E-1,3.6811445E-2,-1.0087638E0,-2.512672E-1,2.798244E-1,7.392581E-1,2.0231001E-1,-5.4220694E-1,-9.623732E-2,-6.6902536E-1,2.1558773E-2,-4.181148E-1,-8.82211E-2,-4.4423044E-1,-8.241453E-2,-6.1635596E-1,2.6620293E-1,-1.2093428E-1,-4.342273E-1,1.9736087E-1,-3.4415007E-1,1.9131933E-1,-3.6021695E-2,-1.0280174E-1,-6.1222143E-2,2.50951E-2,2.965248E-1,-5.0003624E-1,4.8292642E-3,8.6557466E-1,-2.838771E-1,4.232493E-1,-7.8731817E-1,-1.1121266E-2,2.2180704E-2,-8.098677E-2,1.7748056E-2,-3.8707368E-2,-6.573312E-2,-1.215447E-2,-1.7387431E-2,6.147944E-2,-1.1299776E-2,-6.2275726E-2,-3.1149976E-3,5.2661628E-2,-2.5546622E-2,1.6625881E-2,-6.059123E-2,1.4549755E-2,4.4344928E-2,-5.5290937E-2,-7.374797E-2,-1.39103895E-2,5.2707415E-2,3.1020632E-3,1.1491267E-2,3.1383615E-2,-8.217309E-2,-1.0076774E-2,1.034063E-1,5.570417E-2,-5.8453985E-2,2.0051233E-2,7.901097E-2,1.2216284E-2,-7.4179746E-2,8.773518E-3,2.9128045E-2,-5.615272E-2],"categories":[],"categories_nodes":[],"categories_segments":[],"categories_sizes":[],"default_left":[0,0,0,0,0,0,0,0,0,0,0,0,0,0,0,0,0,0,0,0,0,0,0,0,0,0,0,0,0,0,0,0,0,0,0,0,0,0,0,0,0,0,0,0,0,0,0,0,0,0,0,0,0,0,0,0,0,0,0,0,0,0,0,0,0,0,0,0,0,0,0,0,0,0,0,0,0,0,0,0,0,0,0,0,0,0,0,0,0,0,0,0,0],"id":14,"left_children":[1,3,5,7,9,11,13,15,17,19,21,23,25,27,29,-1,31,33,35,37,39,-1,-1,41,43,45,47,49,51,53,55,-1,57,-1,59,-1,61,63,65,67,69,71,73,75,77,-1,-1,-1,-1,79,81,-1,83,85,87,89,91,-1,-1,-1,-1,-1,-1,-1,-1,-1,-1,-1,-1,-1,-1,-1,-1,-1,-1,-1,-1,-1,-1,-1,-1,-1,-1,-1,-1,-1,-1,-1,-1,-1,-1,-1,-1],"loss_changes":[4.4028614E1,1.907673E1,2.2887905E1,2.2124023E0,9.58073E0,7.192643E0,1.73675E1,1.513792E0,2.6975594E0,4.668073E0,1.6125689E0,3.7572858E0,2.1697626E0,7.4108734E0,8.929756E0,0E0,1.1136017E0,2.3500762E0,3.247015E0,4.76469E0,6.1995234E0,0E0,0E0,6.013685E0,6.6255527E0,1.1849709E0,2.540111E0,6.2472725E0,3.249773E0,3.1227496E0,5.011489E0,0E0,5.35819E0,0E0,2.026761E0,0E0,2.304963E0,5.6402183E0,1.9205675E0,7.955601E0,7.2446856E0,1.06334505E1,7.179829E0,3.0379293E0,5.674818E0,0E0,0E0,0E0,0E0,6.6656723E0,1.8799918E0,0E0,1.4411087E0,2.4118683E0,2.845061E0,3.411831E0,3.6750894E0,0E0,0E0,0E0,0E0,0E0,0E0,0E0,0E0,0E0,0E0,0E0,0E0,0E0,0E0,0E0,0E0,0E0,0E0,0E0,0E0,0E0,0E0,0E0,0E0,0E0,0E0,0E0,0E0,0E0,0E0,0E0,0E0,0E0,0E0,0E0,0E0],"parents":[2147483647,0,0,1,1,2,2,3,3,4,4,5,5,6,6,7,7,8,8,9,9,10,10,11,11,12,12,13,13,14,14,16,16,17,17,18,18,19,19,20,20,23,23,24,24,25,25,26,26,27,27,28,28,29,29,30,30,32,32,34,34,36,36,37,37,38,38,39,39,40,40,41,41,42,42,43,43,44,44,49,49,50,50,52,52,53,53,54,54,55,55,56,56],"right_children":[2,4,6,8,10,12,14,16,18,20,22,24,26,28,30,-1,32,34,36,38,40,-1,-1,42,44,46,48,50,52,54,56,-1,58,-1,60,-1,62,64,66,68,70,72,74,76,78,-1,-1,-1,-1,80,82,-1,84,86,88,90,92,-1,-1,-1,-1,-1,-1,-1,-1,-1,-1,-1,-1,-1,-1,-1,-1,-1,-1,-1,-1,-1,-1,-1,-1,-1,-1,-1,-1,-1,-1,-1,-1,-1,-1,-1,-1],"split_conditions":[7.7474E4,6.17E2,5.93E2,5.37E2,1E0,1E0,1E0,1.06807E5,5.7E1,4.08E4,1.61877E5,5E0,4.8E1,8.31E2,2.32438E5,-2.2102717E-2,2.55894E5,5.44E2,5E0,3.5275E4,2.04488E5,-2.2904072E-2,-8.091134E-2,6.5E1,5.26E2,5.4E2,1.21273E5,4E0,9.5974E4,6.62E2,1E0,-9.623732E-2,3.04577E5,2.1558773E-2,2.8213E4,-8.82211E-2,2.36233E5,7.6E1,1.56355E5,7.64E2,3.63199E5,1.45637E5,7.7E1,3.4E1,5.41E2,-3.6021695E-2,-1.0280174E-1,-6.1222143E-2,2.50951E-2,5E0,3.5E1,4.8292642E-3,1.16594E5,1.49235E5,3E0,8.09E2,3.68087E5,2.2180704E-2,-8.098677E-2,1.7748056E-2,-3.8707368E-2,-6.573312E-2,-1.215447E-2,-1.7387431E-2,6.147944E-2,-1.1299776E-2,-6.2275726E-2,-3.1149976E-3,5.2661628E-2,-2.5546622E-2,1.6625881E-2,-6.059123E-2,1.4549755E-2,4.4344928E-2,-5.5290937E-2,-7.374797E-2,-1.39103895E-2,5.2707415E-2,3.1020632E-3,1.1491267E-2,3.1383615E-2,-8.217309E-2,-1.0076774E-2,1.034063E-1,5.570417E-2,-5.8453985E-2,2.0051233E-2,7.901097E-2,1.2216284E-2,-7.4179746E-2,8.773518E-3,2.9128045E-2,-5.615272E-2],"split_indices":[3,4,4,4,11,11,10,5,2,3,5,1,2,4,5,0,5,4,1,3,5,0,0,2,4,4,3,6,3,4,6,0,5,0,3,0,5,2,5,4,5,3,2,2,4,0,0,0,0,1,2,0,3,5,1,4,5,0,0,0,0,0,0,0,0,0,0,0,0,0,0,0,0,0,0,0,0,0,0,0,0,0,0,0,0,0,0,0,0,0,0,0,0],"split_type":[0,0,0,0,0,0,0,0,0,0,0,0,0,0,0,0,0,0,0,0,0,0,0,0,0,0,0,0,0,0,0,0,0,0,0,0,0,0,0,0,0,0,0,0,0,0,0,0,0,0,0,0,0,0,0,0,0,0,0,0,0,0,0,0,0,0,0,0,0,0,0,0,0,0,0,0,0,0,0,0,0,0,0,0,0,0,0,0,0,0,0,0,0],"sum_hessian":[1.1478374E3,3.7858453E2,7.692528E2,1.1491459E2,2.6366995E2,1.9994017E2,5.693127E2,3.1094215E1,8.382037E1,2.4637686E2,1.7293085E1,1.8258925E2,1.735092E1,5.047948E2,6.4517845E1,5.17683E0,2.5917387E1,4.9524998E1,3.4295372E1,7.2037834E1,1.7433902E2,5.3608613E0,1.1932224E1,7.2146225E1,1.1044303E2,1.0430432E1,6.9204865E0,4.672896E2,3.7505188E1,2.6952513E1,3.7565334E1,1.12879305E1,1.4629456E1,4.8932385E0,4.463176E1,1.3271097E1,2.1024277E1,4.6671085E1,2.5366749E1,6.528436E1,1.09054665E2,5.1715584E1,2.0430637E1,3.1513802E1,7.892923E1,4.3222723E0,6.10816E0,3.4379683E0,3.4825184E0,4.5809937E2,9.190242E0,6.1154428E0,3.1389746E1,8.332218E0,1.8620295E1,2.5372658E1,1.2192675E1,3.9457998E0,1.0683656E1,3.9357116E0,4.069605E1,8.385463E0,1.2638813E1,4.0926025E1,5.7450614E0,6.9288363E0,1.8437912E1,3.721846E1,2.80659E1,6.802915E1,4.1025513E1,3.3771866E1,1.794372E1,1.4843456E1,5.587181E0,6.1690755E0,2.5344727E1,1.8600967E1,6.032826E1,1.7740195E2,2.8069742E2,3.0900517E0,6.1001906E0,7.0271344E0,2.4362612E1,4.3386254E0,3.9935923E0,5.174723E0,1.3445572E1,2.1919514E1,3.453145E0,8.207466E0,3.9852085E0],"tree_param":{"num_deleted":"0","num_feature":"13","num_nodes":"93","size_leaf_vector":"1"}},{"base_weights":[2.5075993E-2,-1.5478902E-1,2.0164573E-1,-4.2488563E-1,5.8116484E-2,1.1613348E-2,3.024133E-1,-8.10596E-1,-3.3083895E-1,7.817028E-2,-6.5691814E-2,-2.1370341E-1,1.378451E-1,1.5880913E-1,4.4013798E-1,-5.086378E-1,-9.253869E-1,-4.643566E-1,-8.834272E-2,1.8898984E-2,3.241057E-1,3.7608393E-2,-2.603131E-1,-4.280545E-1,2.3029454E-1,1.090029E-1,1.284228E-1,6.0278278E-2,5.200424E-1,4.0822164E-3,-8.7516814E-1,-7.867448E-2,-2.5781361E-2,-3.4459656E-1,-7.3056823E-1,-1.8797186E-1,5.1501316E-1,-2.9741365E-1,7.063232E-2,4.3380994E-1,-3.4323484E-1,-5.4696304E-1,-7.763693E-2,-1.820411E-1,-7.852132E-2,8.4631205E-1,1.6139103E-1,6.8560325E-2,6.667916E-1,5.8506925E-2,-1.12998374E-1,6.9623405E-1,2.885907E-1,-8.521759E-2,-2.9741384E-2,-3.2902464E-2,2.5969397E-2,-3.411227E-2,-7.676649E-2,-5.67367E-2,-4.3527917E-3,2.874281E-3,7.065319E-2,-6.2724E-3,-4.2516164E-2,4.516839E-2,2.3017323E-3,1.3581749E-2,6.877589E-2,-5.0326195E-2,-8.7551214E-4,-6.2442306E-2,-1.8171294E-2,4.4565458E-2,-1.5236728E-2,-3.6155E-2,1.7086914E-2,1.2766208E-1,2.0693775E-2,-1.5319458E-3,2.8963635E-2,8.923343E-4,4.8829522E-2,1.0060428E-1,5.416134E-3,-5.0969165E-2,1.0410595E-2,5.0966796E-2,1.2224727E-1,-7.2032753E-3,4.615694E-2],"categories":[],"categories_nodes":[],"categories_segments":[],"categories_sizes":[],"default_left":[0,0,0,0,0,0,0,0,0,0,0,0,0,0,0,0,0,0,0,0,0,0,0,0,0,0,0,0,0,0,0,0,0,0,0,0,0,0,0,0,0,0,0,0,0,0,0,0,0,0,0,0,0,0,0,0,0,0,0,0,0,0,0,0,0,0,0,0,0,0,0,0,0,0,0,0,0,0,0,0,0,0,0,0,0,0,0,0,0,0,0],"id":15,"left_children":[1,3,5,7,9,11,13,15,17,19,-1,21,23,25,27,29,31,33,35,37,39,-1,41,43,45,-1,47,49,51,-1,53,-1,-1,55,57,59,61,63,65,67,69,71,73,75,-1,77,79,81,83,-1,85,87,89,-1,-1,-1,-1,-1,-1,-1,-1,-1,-1,-1,-1,-1,-1,-1,-1,-1,-1,-1,-1,-1,-1,-1,-1,-1,-1,-1,-1,-1,-1,-1,-1,-1,-1,-1,-1,-1,-1],"loss_changes":[3.6185097E1,3.2486282E1,1.1005173E1,8.762417E0,5.6457834E0,5.725022E0,7.3594856E0,1.1969738E0,6.493984E0,4.5186124E0,0E0,2.426629E0,6.8450813E0,6.608564E0,5.771492E0,3.218625E0,8.607025E-1,3.8907032E0,4.4792547E0,4.1313863E0,4.5575194E0,0E0,3.5354223E0,2.3345926E0,4.5959334E0,0E0,5.819725E0,4.077677E0,6.2351265E0,0E0,5.0374746E-1,0E0,0E0,4.217228E0,2.3369465E0,4.368558E0,1.8377993E0,1.7778897E0,4.464404E0,5.7193394E0,8.5366523E-1,1.7969847E0,3.1779387E0,1.5920733E0,0E0,4.4233723E0,3.6844308E0,5.1221213E0,6.3197956E0,0E0,3.6729188E0,3.4007416E0,7.6865673E0,0E0,0E0,0E0,0E0,0E0,0E0,0E0,0E0,0E0,0E0,0E0,0E0,0E0,0E0,0E0,0E0,0E0,0E0,0E0,0E0,0E0,0E0,0E0,0E0,0E0,0E0,0E0,0E0,0E0,0E0,0E0,0E0,0E0,0E0,0E0,0E0,0E0,0E0],"parents":[2147483647,0,0,1,1,2,2,3,3,4,4,5,5,6,6,7,7,8,8,9,9,11,11,12,12,13,13,14,14,15,15,16,16,17,17,18,18,19,19,20,20,22,22,23,23,24,24,26,26,27,27,28,28,30,30,33,33,34,34,35,35,36,36,37,37,38,38,39,39,40,40,41,41,42,42,43,43,45,45,46,46,47,47,48,48,50,50,51,51,52,52],"right_children":[2,4,6,8,10,12,14,16,18,20,-1,22,24,26,28,30,32,34,36,38,40,-1,42,44,46,-1,48,50,52,-1,54,-1,-1,56,58,60,62,64,66,68,70,72,74,76,-1,78,80,82,84,-1,86,88,90,-1,-1,-1,-1,-1,-1,-1,-1,-1,-1,-1,-1,-1,-1,-1,-1,-1,-1,-1,-1,-1,-1,-1,-1,-1,-1,-1,-1,-1,-1,-1,-1,-1,-1,-1,-1,-1,-1],"split_conditions":[6.78E2,9.6568E4,7.8989E4,5.4E2,6.75E2,3E0,1E0,3E0,7.353E4,3E0,-6.5691814E-2,6.87E2,3.3024E4,8.0817E4,2.9E1,4.7468E4,9.1967E4,1E0,6.62E2,5.26E2,3E0,3.7608393E-2,7.48E2,3.1202E4,2.4E1,1.090029E-1,8.34E2,7.02E2,6E1,4.0822164E-3,5.1E1,-7.867448E-2,-2.5781361E-2,7.7E1,2E0,2E0,1E0,5.14E2,1E0,6.07E2,3E0,4.9E1,1E0,7.9E2,-7.852132E-2,7.46E2,1E0,1.67303E5,8.42E2,5.8506925E-2,1.08085E5,5.8E1,7.57E2,-8.521759E-2,-2.9741384E-2,-3.2902464E-2,2.5969397E-2,-3.411227E-2,-7.676649E-2,-5.67367E-2,-4.3527917E-3,2.874281E-3,7.065319E-2,-6.2724E-3,-4.2516164E-2,4.516839E-2,2.3017323E-3,1.3581749E-2,6.877589E-2,-5.0326195E-2,-8.7551214E-4,-6.2442306E-2,-1.8171294E-2,4.4565458E-2,-1.5236728E-2,-3.6155E-2,1.7086914E-2,1.2766208E-1,2.0693775E-2,-1.5319458E-3,2.8963635E-2,8.923343E-4,4.8829522E-2,1.0060428E-1,5.416134E-3,-5.0969165E-2,1.0410595E-2,5.0966796E-2,1.2224727E-1,-7.2032753E-3,4.615694E-2],"split_indices":[4,3,3,4,4,1,0,1,3,7,0,4,3,3,2,3,3,6,4,4,6,0,4,3,2,0,4,4,2,0,2,0,0,2,7,1,0,4,1,4,12,2,1,4,0,4,0,3,4,0,3,2,4,0,0,0,0,0,0,0,0,0,0,0,0,0,0,0,0,0,0,0,0,0,0,0,0,0,0,0,0,0,0,0,0,0,0,0,0,0,0],"split_type":[0,0,0,0,0,0,0,0,0,0,0,0,0,0,0,0,0,0,0,0,0,0,0,0,0,0,0,0,0,0,0,0,0,0,0,0,0,0,0,0,0,0,0,0,0,0,0,0,0,0,0,0,0,0,0,0,0,0,0,0,0,0,0,0,0,0,0,0,0,0,0,0,0,0,0,0,0,0,0,0,0,0,0,0,0,0,0,0,0,0,0],"sum_hessian":[1.1373926E3,5.6349976E2,5.738928E2,2.4794968E2,3.1555005E2,1.9925098E2,3.7464185E2,4.7111954E1,2.008377E2,3.0940442E2,6.145636E0,7.129692E1,1.2795405E2,1.8446011E2,1.9018173E2,1.4472626E1,3.2639328E1,1.2893282E2,7.19049E1,2.5018565E2,5.9218765E1,3.9698257E0,6.7327095E1,1.7458332E1,1.1049571E2,3.462335E0,1.8099777E2,3.3357414E1,1.5682431E2,6.068003E0,8.404622E0,2.9198685E1,3.440644E0,9.05098E1,3.8423008E1,6.230521E1,9.599692E0,3.449911E1,2.1568654E2,5.115872E1,8.060048E0,2.5429588E1,4.189751E1,1.3006062E1,